SVM-light Version V6.02
0 # kernel type
3 # kernel parameter -d 
1 # kernel parameter -g 
1 # kernel parameter -s 
1 # kernel parameter -r 
empty# kernel parameter -u 
5 # highest feature index 
15523 # number of training documents 
2973 # number of support vectors plus 1 
1.0008173 # threshold b, each following line is a SV (starting with alpha*y)
-0.45666874852899369541248120185628 1:0.75485188 2:0.8157711 3:0.92307693 4:1 5:0 #12,13,anessayonperson00richgoog
0.45666874852899369541248120185628 1:0.23595506 2:0.15282623 3:0.2 4:0.027777778 5:0 #27,4,anessayonperson00richgoog
-0.45666874852899369541248120185628 1:0.053811658 2:0.076411001 3:0.090909094 4:0.022727273 5:0 #36,81,bookofrevelation00lhot
0.45666874852899369541248120185628 1:0.74388945 2:0.95372009 3:1 4:1 5:1 #146,144,annualreporttown1998hopk
-0.45666874852899369541248120185628 1:0.11560935 2:0.081464872 3:0.2 4:0.02631579 5:1 #86,72,chemicalreports00grah
0.45666874852899369541248120185628 1:0.057299454 2:0.064544141 3:0.1 4:0.024390243 5:0 #56,54,bookofrevelation00lhot
-0.45666874852899369541248120185628 1:0.073741905 2:0.066859625 3:0.1 4:0.022222223 5:0 #184,183,bookofrevelation00lhot
0.45666874852899369541248120185628 1:0.80560273 2:0.90118456 3:1 4:1 5:0 #7,4,brownalumnimonth954brow
-0.45666874852899369541248120185628 1:0.15874363 2:0.98753119 3:1 4:1 5:1 #28,1994,brownalumnimonth954brow
-0.45666874852899369541248120185628 1:0.1689304 2:0.98472571 3:1 4:1 5:1 #56,1994,brownalumnimonth954brow
0.45666874852899369541248120185628 1:0.040358745 2:0.065412447 3:0.090909094 4:0.022222223 5:1 #52,50,bookofrevelation00lhot
0.45666874852899369541248120185628 1:0.027404085 2:0.056729376 3:0.1 4:0.022222223 5:1 #46,44,bookofrevelation00lhot
-0.45666874852899369541248120185628 1:0.1172788 2:0.055804685 3:0.125 4:0.0030395137 5:1 #310,296,chemicalreports00grah
0.45666874852899369541248120185628 1:0.51652688 2:0.98613423 3:1 4:1 5:1 #286,36,bookofrevelation00lhot
-0.45666874852899369541248120185628 1:0.41604385 2:0.068306804 3:0.11111111 4:0.022222223 5:0 #201,31,bookofrevelation00lhot
0.45666874852899369541248120185628 1:0.21041445 2:0.95039856 3:1 4:1 5:1 #150,148,annualreporttown1998hopk
0.45666874852899369541248120185628 1:0.075734928 2:0.073227204 3:0.090909094 4:0.022222223 5:0 #74,72,bookofrevelation00lhot
-0.45666874852899369541248120185628 1:0.13667233 2:0.97755611 3:1 4:1 5:1 #20,1994,brownalumnimonth954brow
-0.45666874852899369541248120185628 1:0.08639399 2:0.099651217 3:0.07692308 4:0.029411765 5:0 #19,2,chemicalreports00grah
0.45666874852899369541248120185628 1:0.49728662 2:0.98447031 3:1 4:1 5:1 #264,14,bookofrevelation00lhot
-0.45552170588563767328338371953578 1:0.95458406 2:0.97880298 3:1 4:1 5:1 #17,13,brownalumnimonth954brow
0.45666874852899369541248120185628 1:0.05480817 2:0.087409548 3:0.090909094 4:0.022222223 5:0 #16,14,bookofrevelation00lhot
-0.45666874852899369541248120185628 1:0.061783757 2:0.10448625 3:0.071428575 4:0.043478262 5:1 #163,83,bookofrevelation00lhot
0.45666874852899369541248120185628 1:0.80926543 2:0.86621821 3:1 4:0.89763778 5:0 #95,83,chemicalreports00grah
-0.45528671399313225265359506011009 1:0.99595755 2:0.93995023 3:1 4:1 5:0 #191,3,classifiedbiblio01veal
-0.45666874852899369541248120185628 1:0.025942441 2:0.041905258 3:1 4:0.03125 5:0 #340,33,belfry01sincgoog
-0.45666874852899369541248120185628 1:0.080645159 2:0.072319202 3:1 4:0.0051020407 5:0 #48,49,brownalumnimonth954brow
0.45666874852899369541248120185628 1:0.10590944 2:0.92673266 3:0.090909094 4:0.97435898 5:1 #38,23,cu31924021743095
0.45666874852899369541248120185628 1:0.53461343 2:0.91319227 3:0.5 4:1 5:1 #86,82,classifiedbiblio01veal
-0.45666874852899369541248120185628 1:0.33973289 2:0.91629297 3:0.1 4:1 5:1 #50,663,chemicalreports00grah
-0.45666874852899369541248120185628 1:0.13898164 2:0.080219232 3:0.2 4:0.025 5:1 #88,74,chemicalreports00grah
0.45666874852899369541248120185628 1:0.10248325 2:0.066524118 3:1 4:0.0067567569 5:0 #216,208,biennialretr1113stat
0.45666874852899369541248120185628 1:0.083653107 2:0.055940595 3:1 4:0.030303031 5:0 #27,12,cu31924021743095
-0.45666874852899369541248120185628 1:0.034006376 2:0.1231178 3:1 4:0.024390243 5:0 #211,2,annualreporttown1998hopk
0.45666874852899369541248120185628 1:0.53107631 2:0.91630369 3:0.5 4:1 5:1 #70,66,classifiedbiblio01veal
-0.45666874852899369541248120185628 1:0.69323874 2:0.96736425 3:0.5 4:1 5:1 #383,2,chemicalreports00grah
0.45666874852899369541248120185628 1:0.22428064 2:0.064385839 3:1 4:0.017241379 5:0 #24,18,biennialretr1113stat
-0.45666874852899369541248120185628 1:0.046689305 2:0.14713217 3:1 4:0.031746034 5:0 #51,75,brownalumnimonth954brow
-0.45666874852899369541248120185628 1:0.039674107 2:0.15146147 3:1 4:0.047619049 5:0 #163,5,annualreporttown1998hopk
0.45666874852899369541248120185628 1:0.53562403 2:0.9091475 3:0.5 4:1 5:1 #84,80,classifiedbiblio01veal
0.45666874852899369541248120185628 1:0.53612936 2:0.89981329 3:0.5 4:1 5:1 #182,178,classifiedbiblio01veal
-0.45666874852899369541248120185628 1:0.64774626 2:0.93024415 3:0.33333334 4:1 5:1 #59,4,chemicalreports00grah
-0.45666874852899369541248120185628 1:0.69741237 2:0.90358746 3:0.33333334 4:1 5:1 #314,6,chemicalreports00grah
0.45666874852899369541248120185628 1:0.18553941 2:0.094798252 3:1 4:0.016129032 5:0 #143,12,cairngormmounta01burtgoog
0.45666874852899369541248120185628 1:0.2349336 2:0.13817167 3:1 4:0.022727273 5:0 #149,126,anessayonperson00richgoog
-0.45666874852899369541248120185628 1:0.12479132 2:0.071748883 3:1 4:0.012658228 5:0 #96,82,chemicalreports00grah
0.45666874852899369541248120185628 1:0.51995957 2:0.89887989 3:0.5 4:1 5:1 #166,162,classifiedbiblio01veal
-0.45666874852899369541248120185628 1:0.92614603 2:0.98659599 3:1 4:1 5:1 #35,31,brownalumnimonth954brow
0.45666874852899369541248120185628 1:0.067762829 2:0.06251809 3:0.1 4:0.022727273 5:0 #24,22,bookofrevelation00lhot
-0.45666874852899369541248120185628 1:0.080015764 2:0.12259444 3:0.06666667 4:0.078431375 5:0 #105,559,biennialretr1113stat
0.45666874852899369541248120185628 1:0.78019202 2:0.83478534 3:0.875 4:0.92105263 5:1 #28,24,classifiedbiblio01veal
-0.45666874852899369541248120185628 1:0.15067911 2:0.98192018 3:1 4:1 5:1 #24,1994,brownalumnimonth954brow
0.45666874852899369541248120185628 1:0.083653107 2:0.060396038 3:0.2 4:0.012048192 5:0 #393,378,cu31924021743095
-0.45666874852899369541248120185628 1:0.092454836 2:0.12710363 3:0.090909094 4:0.02631579 5:0 #259,13,annualreporttown1998hopk
0.45666874852899369541248120185628 1:0.49827331 2:0.97975594 3:1 4:1 5:1 #294,44,bookofrevelation00lhot
-0.45666874852899369541248120185628 1:0.95331067 2:0.97755611 3:1 4:1 5:1 #19,15,brownalumnimonth954brow
0.45666874852899369541248120185628 1:0.082118191 2:0.072277226 3:0.2 4:0.0073529412 5:0 #383,368,cu31924021743095
-0.45666874852899369541248120185628 1:0.049327355 2:0.079305358 3:0.16666667 4:0.022222223 5:0 #34,82,bookofrevelation00lhot
0.45666874852899369541248120185628 1:0.52402353 2:0.95416111 3:1 4:1 5:1 #98,96,annualreporttown1998hopk
0.45666874852899369541248120185628 1:0.10642738 2:0.051569507 3:0.2 4:0.025 5:0 #14,2,chemicalreports00grah
-0.45666874852899369541248120185628 1:0.069429688 2:0.85518157 3:1 4:0.9834711 5:0 #252,5222,annualreporttown1998hopk
-0.45666874852899369541248120185628 1:0.1071552 2:0.82309747 3:1 4:0.98657715 5:0 #41,3913,annualreporttown1998hopk
0.45666874852899369541248120185628 1:0.75280899 2:0.15282623 3:0.5 4:0.05882353 5:1 #156,133,anessayonperson00richgoog
0.45666874852899369541248120185628 1:0.93392783 2:0.04450807 3:1 4:0.028571429 5:1 #81,73,belfry01sincgoog
-0.45666874852899369541248120185628 1:0.90943241 2:0.026656702 3:1 4:0.033898305 5:1 #163,149,chemicalreports00grah
-0.45666874852899369541248120185628 1:0.91811919 2:0.043466944 3:1 4:0.028571429 5:1 #273,265,belfry01sincgoog
0.45666874852899369541248120185628 1:0.46128902 2:0.96876627 3:1 4:1 5:0 #255,247,belfry01sincgoog
0.45666874852899369541248120185628 1:0.46939602 2:0.9739719 3:1 4:1 5:0 #123,115,belfry01sincgoog
-0.34786580838317604502663016319275 1:0.6566214 2:0.94918954 3:0.11111111 4:0.99415207 5:0 #55,15,brownalumnimonth954brow
0.45666874852899369541248120185628 1:0.094205752 2:0.056307912 3:1 4:0.0032051282 5:1 #198,190,biennialretr1113stat
-0.45666874852899369541248120185628 1:0.070951588 2:0.029646238 3:1 4:0.021276595 5:1 #148,134,chemicalreports00grah
-0.45666874852899369541248120185628 1:0.040736806 2:0.12001771 3:1 4:0.01183432 5:1 #161,3,annualreporttown1998hopk
0.45666874852899369541248120185628 1:0.53006572 2:0.89514625 3:0.33333334 4:1 5:0 #148,144,classifiedbiblio01veal
0.45666874852899369541248120185628 1:0.48621041 2:0.83391488 3:0.33333334 4:0.96551722 5:0 #58,35,anessayonperson00richgoog
-0.45666673175537653150968253612518 1:0.65280133 2:0.92113465 3:0.14285715 4:0.99014777 5:0 #59,116,brownalumnimonth954brow
-0.45666874852899369541248120185628 1:0.11444806 2:0.95261848 3:0.029411765 4:1 5:0 #32,51994,brownalumnimonth954brow
0.45666874852899369541248120185628 1:0.07528577 2:0.065811358 3:1 4:0.003144654 5:1 #190,182,biennialretr1113stat
0.45666874852899369541248120185628 1:0.10484824 2:0.056070324 3:1 4:0.0059171598 5:1 #208,200,biennialretr1113stat
-0.45666874852899369541248120185628 1:0.096410684 2:0.036372695 3:1 4:0.0088495575 5:1 #184,170,chemicalreports00grah
0.45666874852899369541248120185628 1:0.52804446 2:0.90696949 3:0.5 4:1 5:0 #154,150,classifiedbiblio01veal
-0.45666874852899369541248120185628 1:0.92826825 2:0.98566085 3:1 4:1 5:0 #39,35,brownalumnimonth954brow
0.45666874852899369541248120185628 1:0.048330843 2:0.059334297 3:0.1 4:0.02631579 5:1 #104,102,bookofrevelation00lhot
-0.45666874852899369541248120185628 1:0.041853514 2:0.12937771 3:0.083333336 4:0.06666667 5:1 #229,4,bookofrevelation00lhot
-0.45666874852899369541248120185628 1:0.051009566 2:0.14658991 3:0.071428575 4:0.078947365 5:1 #239,1998,annualreporttown1998hopk
0.45666874852899369541248120185628 1:0.51652688 2:0.97060454 3:1 4:1 5:0 #275,25,bookofrevelation00lhot
0.45666874852899369541248120185628 1:0.51208681 2:0.96977258 3:1 4:1 5:0 #256,6,bookofrevelation00lhot
-0.45666874852899369541248120185628 1:0.92487264 2:0.98721945 3:1 4:1 5:0 #27,23,brownalumnimonth954brow
0.45666874852899369541248120185628 1:0.056302939 2:0.060202606 3:0.1 4:0.023255814 5:1 #142,140,bookofrevelation00lhot
-0.45666874852899369541248120185628 1:0.069783919 2:0.83591676 3:1 4:0.96694213 5:0 #252,5221,annualreporttown1998hopk
0.45666874852899369541248120185628 1:0.92906362 2:0.053878188 3:1 4:0.028571429 5:1 #13,5,belfry01sincgoog
-0.45666874852899369541248120185628 1:0.90190512 2:0.03539823 3:1 4:0.028571429 5:1 #307,299,belfry01sincgoog
0.45666874852899369541248120185628 1:0.44163719 2:0.91319227 3:0.5 4:1 5:0 #187,183,classifiedbiblio01veal
-0.45666874852899369541248120185628 1:0.6523453 2:0.1815158 3:0.14285715 4:0.60260588 5:1 #192,53,biennialretr1113stat
0.45666874852899369541248120185628 1:0.47261962 2:0.97420967 3:1 4:1 5:0 #296,46,bookofrevelation00lhot
-0.45666874852899369541248120185628 1:0.7800501 2:0.14698555 3:0.73333335 4:0.1 5:1 #54,6,chemicalreports00grah
-0.45666874852899369541248120185628 1:0.73692077 2:0.12677279 3:0.69230771 4:0.075000003 5:1 #158,9,bookofrevelation00lhot
0.45666874852899369541248120185628 1:0.076731443 2:0.062228654 3:0.1 4:0.022727273 5:1 #60,58,bookofrevelation00lhot
0.45666874852899369541248120185628 1:0.073243648 2:0.063675836 3:0.1 4:0.022727273 5:1 #62,60,bookofrevelation00lhot
-0.45666874852899369541248120185628 1:0.080968283 2:0.034379672 3:0.2 4:0.025 5:1 #198,184,chemicalreports00grah
0.45666874852899369541248120185628 1:0.50616676 2:0.97615087 3:1 4:1 5:0 #270,20,bookofrevelation00lhot
-0.45666874852899369541248120185628 1:0.59432387 2:0.14275037 3:0.25 4:0.10810811 5:1 #60,2,chemicalreports00grah
-0.45666874852899369541248120185628 1:0.6581803 2:0.1163428 3:0.25 4:0.14583333 5:1 #66,47,chemicalreports00grah
0.45666874852899369541248120185628 1:0.45235565 2:0.94973427 3:1 4:1 5:0 #139,137,annualreporttown1998hopk
0.45666874852899369541248120185628 1:0.45696068 2:0.94951284 3:1 4:1 5:0 #201,199,annualreporttown1998hopk
-0.45666874852899369541248120185628 1:0.85034537 2:0.21287128 3:1 4:0.1875 5:1 #380,1610,cu31924021743095
-0.45666874852899369541248120185628 1:0.86185306 2:0.20876931 3:1 4:0.21212122 5:1 #52,764,chemicalreports00grah
0.45666874852899369541248120185628 1:0.052815147 2:0.064254701 3:0.1 4:0.023809524 5:1 #66,64,bookofrevelation00lhot
0.45666874852899369541248120185628 1:0.071250625 2:0.080463096 3:0.090909094 4:0.022222223 5:1 #42,40,bookofrevelation00lhot
-0.45666874852899369541248120185628 1:0.076468267 2:0.12021858 3:0.071428575 4:0.079999998 5:1 #119,710,biennialretr1113stat
0.45666874852899369541248120185628 1:0.54320365 2:0.91599256 3:1 4:1 5:0 #152,148,classifiedbiblio01veal
-0.45666874852899369541248120185628 1:0.04463337 2:0.90721875 3:1 4:0.82926828 5:0 #211,9,annualreporttown1998hopk
0.45666874852899369541248120185628 1:0.91892987 2:0.038781885 3:1 4:0.028571429 5:1 #145,137,belfry01sincgoog
-0.45666874852899369541248120185628 1:0.89315528 2:0.034628801 3:1 4:0.025 5:1 #147,133,chemicalreports00grah
0.45666874852899369541248120185628 1:0.44912013 2:0.91200775 3:0.5 4:1 5:0 #133,2,cairngormmounta01burtgoog
-0.45666874852899369541248120185628 1:0.1028396 2:0.94702971 3:0.1 4:1 5:0 #325,186,cu31924021743095
-0.45666874852899369541248120185628 1:0.65108514 2:0.10911809 3:0.78571427 4:0.048780486 5:1 #49,4,chemicalreports00grah
0.45666874852899369541248120185628 1:0.14544737 2:0.050843433 3:1 4:0.0032573289 5:1 #192,184,biennialretr1113stat
0.45666874852899369541248120185628 1:0.10287742 2:0.065811358 3:1 4:0.0052083335 5:1 #212,204,biennialretr1113stat
-0.45666874852899369541248120185628 1:0.87020034 2:0.027154958 3:1 4:0.024390243 5:1 #159,145,chemicalreports00grah
-0.45666874852899369541248120185628 1:0.86018366 2:0.036372695 3:1 4:0.016129032 5:1 #161,147,chemicalreports00grah
0.45666874852899369541248120185628 1:0.51642245 2:0.9091475 3:0.5 4:1 5:0 #158,154,classifiedbiblio01veal
0.45666874852899369541248120185628 1:0.50783223 2:0.90012443 3:0.5 4:1 5:0 #14,10,classifiedbiblio01veal
-0.45666874852899369541248120185628 1:0.67988312 2:0.10961634 3:0.78571427 4:0.06818182 5:1 #140,2,chemicalreports00grah
0.45666874852899369541248120185628 1:0.92460477 2:0.04450807 3:1 4:0.028571429 5:1 #83,75,belfry01sincgoog
-0.45666874852899369541248120185628 1:0.90879613 2:0.04737116 3:1 4:0.029411765 5:0 #339,351,belfry01sincgoog
0.45666874852899369541248120185628 1:0.433047 2:0.91225886 3:0.5 4:1 5:1 #183,179,classifiedbiblio01veal
-0.45666874852899369541248120185628 1:0.14516129 2:0.97568578 3:1 4:1 5:1 #18,1994,brownalumnimonth954brow
-0.45666874852899369541248120185628 1:0.085141905 2:0.034379672 3:0.2 4:0.025 5:1 #210,196,chemicalreports00grah
-0.45666874852899369541248120185628 1:0.090264089 2:0.10928962 3:0.071428575 4:0.078431375 5:1 #149,1007,biennialretr1113stat
0.45666874852899369541248120185628 1:0.49136657 2:0.97587353 3:1 4:1 5:0 #273,23,bookofrevelation00lhot
0.45666874852899369541248120185628 1:0.50468671 2:0.96173042 3:1 4:1 5:0 #259,9,bookofrevelation00lhot
-0.45666874852899369541248120185628 1:0.92826825 2:0.98316711 3:1 4:1 5:0 #25,21,brownalumnimonth954brow
-0.45666874852899369541248120185628 1:0.93251276 2:0.98098505 3:1 4:1 5:0 #11,7,brownalumnimonth954brow
0.45666874852899369541248120185628 1:0.042850025 2:0.075832129 3:0.1 4:0.022222223 5:1 #22,20,bookofrevelation00lhot
0.45666874852899369541248120185628 1:0.082885645 2:0.065841585 3:0.2 4:0.0069930069 5:1 #389,374,cu31924021743095
0.45666874852899369541248120185628 1:0.50777739 2:0.95638627 3:1 4:1 5:0 #9,7,annualreporttown1998hopk
-0.45666874852899369541248120185628 1:0.046209972 2:0.038781885 3:0.33333334 4:0.028571429 5:1 #270,262,belfry01sincgoog
-0.45666874852899369541248120185628 1:0.054316983 2:0.034877669 3:0.33333334 4:0.029411765 5:1 #274,266,belfry01sincgoog
0.45666874852899369541248120185628 1:0.85042083 2:0.52309185 3:0.91666669 4:0.54098362 5:0 #133,2,cairngormmounta01burtgoog
0.45666874852899369541248120185628 1:0.93392783 2:0.050494533 3:1 4:0.028571429 5:0 #25,17,belfry01sincgoog
0.45666874852899369541248120185628 1:0.079815812 2:0.069306932 3:0.2 4:0.0092592593 5:1 #391,376,cu31924021743095
-0.45666874852899369541248120185628 1:0.13677572 2:0.066524118 3:1 4:0.0061349692 5:0 #214,200,biennialretr1113stat
-0.45666874852899369541248120185628 1:0.14148581 2:0.056801196 3:1 4:0.014285714 5:0 #94,80,chemicalreports00grah
0.45666874852899369541248120185628 1:0.50378978 2:0.90976977 3:0.5 4:1 5:1 #178,174,classifiedbiblio01veal
0.45666874852899369541248120185628 1:0.46235472 2:0.91941506 3:0.5 4:1 5:1 #177,173,classifiedbiblio01veal
-0.45666874852899369541248120185628 1:0.7078464 2:0.92949677 3:0.40000001 4:1 5:1 #313,3,chemicalreports00grah
-0.45666874852899369541248120185628 1:0.63439065 2:0.9123069 3:0.2857143 4:0.9861111 5:1 #313,3,chemicalreports00grah
0.45666874852899369541248120185628 1:0.22471911 2:0.13538033 3:1 4:0.028571429 5:0 #135,112,anessayonperson00richgoog
0.45666874852899369541248120185628 1:0.21144025 2:0.14515004 3:1 4:0.028571429 5:0 #109,86,anessayonperson00richgoog
-0.45666874852899369541248120185628 1:0.081576221 2:0.11726747 3:1 4:0.020512821 5:0 #69,2,annualreporttown1998hopk
0.45666874852899369541248120185628 1:0.51793838 2:0.89607966 3:0.5 4:1 5:1 #164,160,classifiedbiblio01veal
-0.45666874852899369541248120185628 1:0.11406844 2:0.15821095 3:1 4:0.0090090092 5:0 #68,5,annualreporttown1998hopk
0.45666874852899369541248120185628 1:0.51035875 2:0.90416926 3:0.5 4:1 5:1 #196,192,classifiedbiblio01veal
-0.45666874852899369541248120185628 1:0.93718165 2:0.98347878 3:1 4:1 5:1 #37,33,brownalumnimonth954brow
0.45666874852899369541248120185628 1:0.039362233 2:0.054703329 3:0.5 4:0.022222223 5:0 #58,56,bookofrevelation00lhot
0.45666874852899369541248120185628 1:0.93068504 2:0.028891202 3:1 4:0.028571429 5:0 #147,139,belfry01sincgoog
-0.45666874852899369541248120185628 1:0.061285499 2:0.89059335 3:0.06666667 4:0.97727275 5:1 #205,7,bookofrevelation00lhot
-0.45666874852899369541248120185628 1:0.44512662 2:0.17524752 3:1 4:0.053435113 5:1 #386,178,cu31924021743095
0.45666874852899369541248120185628 1:0.87544346 2:0.05583274 3:1 4:0.0071174377 5:1 #197,189,biennialretr1113stat
0.45666874852899369541248120185628 1:0.86953092 2:0.050368257 3:1 4:0.0088888891 5:1 #191,183,biennialretr1113stat
-0.45666874852899369541248120185628 1:0.90879613 2:0.048152003 3:1 4:0.028571429 5:1 #337,329,belfry01sincgoog
-0.45666874852899369541248120185628 1:0.88689482 2:0.033881415 3:1 4:0.025 5:1 #149,135,chemicalreports00grah
0.45666874852899369541248120185628 1:0.4325417 2:0.91132545 3:0.5 4:1 5:1 #179,175,classifiedbiblio01veal
0.45666874852899369541248120185628 1:0.43506822 2:0.90821409 3:0.5 4:1 5:1 #181,177,classifiedbiblio01veal
-0.45666874852899369541248120185628 1:0.93039048 2:0.98129678 3:1 4:1 5:0 #9,5,brownalumnimonth954brow
-0.45666874852899369541248120185628 1:0.93166381 2:0.98036158 3:1 4:1 5:0 #13,9,brownalumnimonth954brow
0.45666874852899369541248120185628 1:0.041345764 2:0.034096826 3:0.25 4:0.028571429 5:1 #146,138,belfry01sincgoog
0.45666874852899369541248120185628 1:0.081350729 2:0.069801979 3:0.2 4:0.0075187972 5:1 #385,370,cu31924021743095
-0.45666874852899369541248120185628 1:0.087899096 2:0.11689238 3:0.071428575 4:0.07692308 5:1 #102,526,biennialretr1113stat
-0.45666874852899369541248120185628 1:0.073314942 2:0.12663341 3:0.07692308 4:0.086956523 5:1 #139,920,biennialretr1113stat
0.45666874852899369541248120185628 1:0.53815061 2:0.90323585 3:1 4:1 5:0 #104,100,classifiedbiblio01veal
-0.45666874852899369541248120185628 1:0.77123183 2:0.11278561 3:1 4:0.035714287 5:0 #96,86,cairngormmounta01burtgoog
0.45666874852899369541248120185628 1:0.7630235 2:0.14863922 3:0.5 4:0.05882353 5:0 #72,49,anessayonperson00richgoog
-0.45666874852899369541248120185628 1:0.1071552 2:0.80462837 3:1 4:0.97315437 5:0 #41,3912,annualreporttown1998hopk
-0.45666874852899369541248120185628 1:0.18320084 2:0.87027144 3:1 4:0.97222221 5:0 #106,1999,annualreporttown1998hopk
0.45666874852899369541248120185628 1:0.23391216 2:0.15073273 3:0.2 4:0.029411765 5:1 #171,148,anessayonperson00richgoog
0.45666874852899369541248120185628 1:0.22574055 2:0.14794138 3:0.2 4:0.029411765 5:1 #47,24,anessayonperson00richgoog
-0.45666874852899369541248120185628 1:0.10225376 2:0.02939711 3:0.2 4:0.025 5:1 #222,208,chemicalreports00grah
0.45666874852899369541248120185628 1:0.48149976 2:0.97587353 3:1 4:1 5:0 #284,34,bookofrevelation00lhot
0.45666874852899369541248120185628 1:0.42900455 2:0.91319227 3:1 4:1 5:0 #119,115,classifiedbiblio01veal
-0.45666874852899369541248120185628 1:0.81677794 2:0.81141007 3:0.33333334 4:0.92682928 5:1 #64,24,chemicalreports00grah
-0.42956822477772949042673644726165 1:0.7481277 2:0.92563552 3:0.25 4:0.86120999 5:1 #197,2,biennialretr1113stat
0.45666874852899369541248120185628 1:0.21144025 2:0.14863922 3:1 4:0.027777778 5:0 #93,70,anessayonperson00richgoog
0.45666874852899369541248120185628 1:0.21552604 2:0.14584787 3:1 4:0.027777778 5:0 #111,88,anessayonperson00richgoog
-0.45666874852899369541248120185628 1:0.14584154 2:0.03991447 3:1 4:0.06666667 5:0 #2,1915,biennialretr1113stat
0.45666874852899369541248120185628 1:0.50530571 2:0.90230244 3:0.5 4:1 5:1 #146,142,classifiedbiblio01veal
-0.45666874852899369541248120185628 1:0.13850513 2:0.13751107 3:1 4:0.0045662099 5:0 #202,8,annualreporttown1998hopk
-0.45666874852899369541248120185628 1:0.069783919 2:0.26173604 3:1 4:0.0071942448 5:0 #229,9,annualreporttown1998hopk
0.45666874852899369541248120185628 1:0.50227386 2:0.90199131 3:0.5 4:1 5:1 #162,158,classifiedbiblio01veal
0.45666874852899369541248120185628 1:0.45780697 2:0.90665835 3:0.5 4:1 5:1 #169,165,classifiedbiblio01veal
-0.45666874852899369541248120185628 1:0.70492488 2:0.94220227 3:0.5 4:1 5:1 #367,2,chemicalreports00grah
-0.45666874852899369541248120185628 1:0.53547579 2:0.929995 3:0.33333334 4:1 5:1 #343,3,chemicalreports00grah
0.45666874852899369541248120185628 1:0.2226762 2:0.14305653 3:1 4:0.02631579 5:0 #89,66,anessayonperson00richgoog
0.45666874852899369541248120185628 1:0.2165475 2:0.15003489 3:1 4:0.023255814 5:0 #61,38,anessayonperson00richgoog
-0.45666874852899369541248120185628 1:0.21206149 2:0.10643858 3:1 4:0.020547945 5:0 #210,03,biennialretr1113stat
0.45666874852899369541248120185628 1:0.60642737 2:0.78201294 3:0.6111111 4:0.82926828 5:1 #15,3,chemicalreports00grah
-0.45666874852899369541248120185628 1:0.95543295 2:0.97475064 3:1 4:1 5:1 #21,17,brownalumnimonth954brow
0.45666874852899369541248120185628 1:0.090984978 2:0.050572995 3:0.2 4:0.025 5:0 #20,8,chemicalreports00grah
-0.45666874852899369541248120185628 1:0.086322427 2:0.11879306 3:0.06666667 4:0.08510638 5:0 #143,950,biennialretr1113stat
0.45666874852899369541248120185628 1:0.52355647 2:0.95372009 3:1 4:1 5:1 #134,132,annualreporttown1998hopk
-0.45666874852899369541248120185628 1:0.15110357 2:0.97630924 3:1 4:1 5:1 #22,1994,brownalumnimonth954brow
-0.45666874852899369541248120185628 1:0.8990677 2:0.038781885 3:0.75 4:0.030303031 5:0 #269,261,belfry01sincgoog
0.45666874852899369541248120185628 1:0.45189935 2:0.97892404 3:1 4:1 5:1 #285,35,bookofrevelation00lhot
-0.45666874852899369541248120185628 1:0.18081494 2:0.98441398 3:1 4:1 5:1 #38,1994,brownalumnimonth954brow
0.45666874852899369541248120185628 1:0.078881472 2:0.059541605 3:0.2 4:0.025 5:0 #18,6,chemicalreports00grah
-0.45666874852899369541248120185628 1:0.087504931 2:0.12069375 3:0.071428575 4:0.079999998 5:0 #120,722,biennialretr1113stat
0.45666874852899369541248120185628 1:0.47903305 2:0.98363841 3:1 4:1 5:1 #269,19,bookofrevelation00lhot
-0.45666874852899369541248120185628 1:0.92741936 2:0.98503739 3:1 4:1 5:1 #29,25,brownalumnimonth954brow
0.45666874852899369541248120185628 1:0.07904835 2:0.064356439 3:0.2 4:0.027027028 5:0 #71,56,cu31924021743095
-0.45666874852899369541248120185628 1:0.079621598 2:0.12734616 3:0.071428575 4:0.08510638 5:0 #129,830,biennialretr1113stat
0.45666874852899369541248120185628 1:0.52284801 2:0.95416296 3:1 4:1 5:1 #118,116,annualreporttown1998hopk
-0.45666874852899369541248120185628 1:0.1795416 2:0.98223191 3:1 4:1 5:1 #42,1994,brownalumnimonth954brow
0.45666874852899369541248120185628 1:0.23289071 2:0.1444522 3:0.2 4:0.027027028 5:0 #123,100,anessayonperson00richgoog
-0.45666874852899369541248120185628 1:0.14190318 2:0.059790734 3:0.2 4:0.01754386 5:0 #44,30,chemicalreports00grah
0.45666874852899369541248120185628 1:0.48885286 2:0.97917753 3:1 4:1 5:1 #144,136,belfry01sincgoog
-0.45666874852899369541248120185628 1:0.93123937 2:0.97942644 3:1 4:1 5:1 #57,53,brownalumnimonth954brow
0.45666874852899369541248120185628 1:0.081350729 2:0.068811879 3:0.2 4:0.025641026 5:0 #73,58,cu31924021743095
-0.45666874852899369541248120185628 1:0.058775842 2:0.049453411 3:0.33333334 4:0.028571429 5:0 #338,330,belfry01sincgoog
0.45666874852899369541248120185628 1:0.51780158 2:0.95794392 3:1 4:1 5:1 #88,86,annualreporttown1998hopk
-0.45666874852899369541248120185628 1:0.18421052 2:0.98410225 3:1 4:1 5:1 #30,1994,brownalumnimonth954brow
0.45666874852899369541248120185628 1:0.24004085 2:0.14863922 3:0.2 4:0.030303031 5:0 #163,140,anessayonperson00richgoog
-0.45666874852899369541248120185628 1:0.13647746 2:0.064025909 3:0.2 4:0.021739131 5:0 #46,32,chemicalreports00grah
0.45666874852899369541248120185628 1:0.49939197 2:0.97605413 3:1 4:1 5:1 #160,152,belfry01sincgoog
-0.45666874852899369541248120185628 1:0.92487264 2:0.97911471 3:1 4:1 5:1 #51,47,brownalumnimonth954brow
0.45666874852899369541248120185628 1:0.083653107 2:0.065346532 3:0.2 4:0.027777778 5:0 #47,32,cu31924021743095
-0.45666874852899369541248120185628 1:0.081592433 2:0.12663341 3:0.071428575 4:0.08510638 5:0 #125,780,biennialretr1113stat
0.45666874852899369541248120185628 1:0.52320224 2:0.95172721 3:1 4:1 5:1 #120,118,annualreporttown1998hopk
-0.45666874852899369541248120185628 1:0.17996605 2:0.98036158 3:1 4:1 5:1 #58,1994,brownalumnimonth954brow
0.45666874852899369541248120185628 1:0.2288049 2:0.14863922 3:0.2 4:0.027777778 5:0 #125,102,anessayonperson00richgoog
-0.45666874852899369541248120185628 1:0.45663851 2:0.68564355 3:1 4:0.34513274 5:1 #392,95,cu31924021743095
-0.45666874852899369541248120185628 1:0.44512662 2:0.66980195 3:1 4:0.33628318 5:1 #392,365,cu31924021743095
0.45666874852899369541248120185628 1:0.8687644 2:0.07376238 3:1 4:0.017699115 5:1 #392,377,cu31924021743095
0.45666874852899369541248120185628 1:0.86185724 2:0.07376238 3:1 4:0.013333334 5:1 #390,375,cu31924021743095
-0.45666874852899369541248120185628 1:0.88488042 2:0.041124415 3:1 4:0.028571429 5:0 #317,309,belfry01sincgoog
0.45666874852899369541248120185628 1:0.45926225 2:0.97969806 3:1 4:1 5:1 #61,53,belfry01sincgoog
-0.45666874852899369541248120185628 1:0.10809683 2:0.030891879 3:0.2 4:0.025 5:1 #220,206,chemicalreports00grah
0.45666874852899369541248120185628 1:0.48100641 2:0.97504157 3:1 4:1 5:0 #290,40,bookofrevelation00lhot
-0.45666874852899369541248120185628 1:0.92784381 2:0.97786784 3:1 4:1 5:0 #55,51,brownalumnimonth954brow
0.45666874852899369541248120185628 1:0.082118191 2:0.077227719 3:0.2 4:0.0094339624 5:1 #387,372,cu31924021743095
0.45666874852899369541248120185628 1:0.077513434 2:0.071287125 3:0.2 4:0.019607844 5:1 #235,220,cu31924021743095
-0.45666874852899369541248120185628 1:0.10016695 2:0.028649727 3:0.2 4:0.025641026 5:1 #192,178,chemicalreports00grah
-0.45666874852899369541248120185628 1:0.097662769 2:0.031390134 3:0.2 4:0.025 5:1 #180,166,chemicalreports00grah
0.45666874852899369541248120185628 1:0.49481994 2:0.96561289 3:1 4:1 5:0 #292,42,bookofrevelation00lhot
0.45666874852899369541248120185628 1:0.48741984 2:0.96894068 3:1 4:1 5:0 #254,4,bookofrevelation00lhot
-0.45666874852899369541248120185628 1:0.92487264 2:0.98316711 3:1 4:1 5:0 #41,37,brownalumnimonth954brow
-0.45666874852899369541248120185628 1:0.19011407 2:0.91032487 3:1 4:0.93846154 5:0 #69,00,annualreporttown1998hopk
0.45666874852899369541248120185628 1:0.22982635 2:0.14724354 3:0.2 4:0.032258064 5:1 #175,152,anessayonperson00richgoog
-0.45666874852899369541248120185628 1:0.10475793 2:0.029895367 3:0.2 4:0.025641026 5:1 #194,180,chemicalreports00grah
0.45666874852899369541248120185628 1:0.47912446 2:0.97006768 3:1 4:1 5:0 #87,79,belfry01sincgoog
0.45666874852899369541248120185628 1:0.07904835 2:0.077227719 3:0.2 4:0.018867925 5:1 #107,92,cu31924021743095
-0.45666874852899369541248120185628 1:0.92784381 2:0.97568578 3:1 4:1 5:0 #43,39,brownalumnimonth954brow
0.45666874852899369541248120185628 1:0.076745972 2:0.075247526 3:0.2 4:0.021739131 5:1 #89,74,cu31924021743095
-0.45666874852899369541248120185628 1:0.089315526 2:0.038863976 3:0.2 4:0.025 5:1 #202,188,chemicalreports00grah
0.45666874852899369541248120185628 1:0.50190115 2:0.96061414 3:1 4:1 5:0 #56,54,annualreporttown1998hopk
-0.45666874852899369541248120185628 1:0.037562605 2:0.21001495 3:1 4:0.086387433 5:1 #289,10,chemicalreports00grah
-0.45666874852899369541248120185628 1:0.10255371 2:0.044247787 3:0.5 4:0.029411765 5:0 #196,88,belfry01sincgoog
0.45666874852899369541248120185628 1:0.48840651 2:0.97698283 3:1 4:1 5:1 #266,16,bookofrevelation00lhot
-0.45666874852899369541248120185628 1:0.91850597 2:0.98004985 3:1 4:1 5:1 #49,45,brownalumnimonth954brow
0.45666874852899369541248120185628 1:0.081350729 2:0.069801979 3:0.2 4:0.027777778 5:0 #363,348,cu31924021743095
-0.45666874852899369541248120185628 1:0.03790294 2:0.20637733 3:0.07692308 4:0.14705883 5:0 #223,250,annualreporttown1998hopk
0.45666874852899369541248120185628 1:0.92744225 2:0.056741282 3:1 4:0.029411765 5:1 #55,47,belfry01sincgoog
-0.45666874852899369541248120185628 1:0.89501417 2:0.037220199 3:1 4:0.030303031 5:1 #331,323,belfry01sincgoog
-0.45666874852899369541248120185628 1:0.90028375 2:0.051015098 3:1 4:0.028571429 5:1 #335,327,belfry01sincgoog
0.45666874852899369541248120185628 1:0.45679635 2:0.91505909 3:0.5 4:0.97435898 5:0 #191,187,classifiedbiblio01veal
0.45666874852899369541248120185628 1:0.52400202 2:0.90168017 3:0.5 4:1 5:0 #150,146,classifiedbiblio01veal
-0.00078052684693830087780952453613281 1:0.063242786 2:0.98129678 3:0.25 4:1 5:0 #34,30,brownalumnimonth954brow
0.45666874852899369541248120185628 1:0.87347263 2:0.059158944 3:1 4:0.010471204 5:1 #195,187,biennialretr1113stat
-0.45666874852899369541248120185628 1:0.9235993 2:0.97662097 3:1 4:1 5:1 #59,55,brownalumnimonth954brow
0.45666874852899369541248120185628 1:0.089025326 2:0.076732673 3:0.2 4:0.022727273 5:0 #127,112,cu31924021743095
-0.45666874852899369541248120185628 1:0.091840759 2:0.1147541 3:0.07692308 4:0.083333336 5:0 #150,1010,biennialretr1113stat
0.45666874852899369541248120185628 1:0.51538193 2:0.95972407 3:1 4:1 5:1 #72,70,annualreporttown1998hopk
-0.45666874852899369541248120185628 1:0.11268781 2:0.91504735 3:1 4:0.98167539 5:1 #289,147505,chemicalreports00grah
0.45666874852899369541248120185628 1:0.7507661 2:0.15352407 3:0.5 4:0.057142857 5:0 #126,103,anessayonperson00richgoog
-0.45666874852899369541248120185628 1:0.4564026 2:0.061939217 3:0.30000001 4:0.022727273 5:0 #153,31,bookofrevelation00lhot
0.45666874852899369541248120185628 1:0.43463245 2:0.96755409 3:1 4:1 5:1 #287,37,bookofrevelation00lhot
-0.45666874852899369541248120185628 1:0.90023023 2:0.95742571 3:1 4:1 5:1 #384,41,cu31924021743095
0.45666874852899369541248120185628 1:0.076745972 2:0.074752472 3:0.2 4:0.029411765 5:0 #97,82,cu31924021743095
-0.45666874852899369541248120185628 1:0.084420569 2:0.085148513 3:0.2 4:0.035714287 5:0 #151,135,cu31924021743095
0.45666874852899369541248120185628 1:0.51753455 2:0.95748448 3:1 4:1 5:1 #132,130,annualreporttown1998hopk
-0.45666874852899369541248120185628 1:0.18293718 2:0.98223191 3:1 4:1 5:1 #52,1994,brownalumnimonth954brow
0.45666874852899369541248120185628 1:0.21961185 2:0.1521284 3:0.2 4:0.028571429 5:0 #77,54,anessayonperson00richgoog
-0.45666874852899369541248120185628 1:0.12437396 2:0.068011954 3:0.2 4:0.025 5:0 #70,56,chemicalreports00grah
0.45666874852899369541248120185628 1:0.49047425 2:0.97501302 3:1 4:1 5:1 #206,198,belfry01sincgoog
-0.45666874852899369541248120185628 1:0.89409053 2:0.9569307 3:1 4:1 5:1 #390,49,cu31924021743095
0.45666874852899369541248120185628 1:0.084420569 2:0.072277226 3:0.2 4:0.030303031 5:0 #169,154,cu31924021743095
-0.45666874852899369541248120185628 1:0.065666802 2:0.051795941 3:0.33333334 4:0.028571429 5:0 #312,304,belfry01sincgoog
0.45666874852899369541248120185628 1:0.52072263 2:0.95438439 3:1 4:1 5:1 #136,134,annualreporttown1998hopk
-0.45666874852899369541248120185628 1:0.18505943 2:0.98316711 3:1 4:1 5:1 #36,1994,brownalumnimonth954brow
0.45666874852899369541248120185628 1:0.084420569 2:0.079702973 3:0.2 4:0.025641026 5:0 #355,340,cu31924021743095
-0.45666874852899369541248120185628 1:0.087110758 2:0.12116893 3:0.07692308 4:0.081632651 5:0 #112,027,biennialretr1113stat
0.45666874852899369541248120185628 1:0.4696596 2:0.97559625 3:1 4:1 5:1 #265,15,bookofrevelation00lhot
-0.45666874852899369541248120185628 1:0.88641596 2:0.9648515 3:1 4:1 5:1 #386,227,cu31924021743095
0.45666874852899369541248120185628 1:0.079815812 2:0.076732673 3:0.2 4:0.032258064 5:0 #103,88,cu31924021743095
-0.45666874852899369541248120185628 1:0.077249579 2:0.087281793 3:0.2857143 4:0.014218009 5:0 #56,10,brownalumnimonth954brow
0.45666874852899369541248120185628 1:0.51930571 2:0.95482731 3:1 4:1 5:1 #130,128,annualreporttown1998hopk
-0.45666874852899369541248120185628 1:0.18293718 2:0.97911471 3:1 4:1 5:1 #60,1994,brownalumnimonth954brow
0.45666874852899369541248120185628 1:0.19713993 2:0.15352407 3:0.2 4:0.029411765 5:0 #53,30,anessayonperson00richgoog
-0.45666874852899369541248120185628 1:0.088687427 2:0.12116893 3:0.083333336 4:0.07692308 5:0 #111,015,biennialretr1113stat
0.45666874852899369541248120185628 1:0.49284658 2:0.96866333 3:1 4:1 5:1 #289,39,bookofrevelation00lhot
-0.45666874852899369541248120185628 1:0.88948578 2:0.9490099 3:1 4:1 5:1 #391,81,cu31924021743095
0.45666874852899369541248120185628 1:0.083653107 2:0.08118812 3:0.2 4:0.027027028 5:0 #353,338,cu31924021743095
-0.45666874852899369541248120185628 1:0.073773816 2:0.053878188 3:0.33333334 4:0.030303031 5:0 #320,312,belfry01sincgoog
0.45666874852899369541248120185628 1:0.51965994 2:0.95372009 3:1 4:1 5:1 #152,150,annualreporttown1998hopk
-0.45666874852899369541248120185628 1:0.18845502 2:0.98347878 3:1 4:1 5:1 #48,1994,brownalumnimonth954brow
0.45666874852899369541248120185628 1:0.085188031 2:0.070297033 3:0.2 4:0.041666668 5:0 #381,366,cu31924021743095
-0.45666874852899369541248120185628 1:0.089869924 2:0.12663341 3:0.06666667 4:0.083333336 5:0 #103,539,biennialretr1113stat
0.45666874852899369541248120185628 1:0.48347312 2:0.97032726 3:1 4:1 5:1 #288,38,bookofrevelation00lhot
-0.45666874852899369541248120185628 1:0.88411361 2:0.95396042 3:1 4:1 5:1 #392,118,cu31924021743095
0.45666874852899369541248120185628 1:0.079815812 2:0.078217819 3:0.2 4:0.033333335 5:0 #91,76,cu31924021743095
-0.45666874852899369541248120185628 1:0.084312931 2:0.054919314 3:0.33333334 4:0.028571429 5:0 #98,50,belfry01sincgoog
0.45666874852899369541248120185628 1:0.51780158 2:0.95482868 3:1 4:1 5:1 #100,98,annualreporttown1998hopk
-0.45666874852899369541248120185628 1:0.18760611 2:0.98067331 3:1 4:1 5:1 #50,1994,brownalumnimonth954brow
-0.45666874852899369541248120185628 1:0.11185309 2:0.90009964 3:1 4:0.96335077 5:1 #289,137426,chemicalreports00grah
0.45666874852899369541248120185628 1:0.17635807 2:0.078755468 3:0.25 4:0.017241379 5:0 #135,4,cairngormmounta01burtgoog
0.45666874852899369541248120185628 1:0.17712319 2:0.086290717 3:0.25 4:0.016393442 5:0 #133,2,cairngormmounta01burtgoog
-0.45666874852899369541248120185628 1:0.088687427 2:0.12520789 3:0.071428575 4:0.083333336 5:0 #104,551,biennialretr1113stat
0.45666874852899369541248120185628 1:0.46250507 2:0.97527331 3:1 4:1 5:1 #41,33,belfry01sincgoog
-0.45666874852899369541248120185628 1:0.90595865 2:0.055179592 3:1 4:0.028571429 5:0 #289,281,belfry01sincgoog
0.45666874852899369541248120185628 1:0.44244727 2:0.96217179 3:1 4:1 5:1 #103,101,annualreporttown1998hopk
0.45666874852899369541248120185628 1:0.91771382 2:0.039302446 3:1 4:0.028571429 5:0 #115,107,belfry01sincgoog
-0.45666874852899369541248120185628 1:0.8749041 2:0.96089107 3:1 4:1 5:1 #387,361,cu31924021743095
0.45666874852899369541248120185628 1:0.03769761 2:0.029151484 3:0.33333334 4:0.028571429 5:0 #20,12,belfry01sincgoog
-0.45666874852899369541248120185628 1:0.084351599 2:0.12805893 3:0.071428575 4:0.083333336 5:0 #135,888,biennialretr1113stat
0.45666874852899369541248120185628 1:0.51503628 2:0.95616376 3:1 4:1 5:1 #50,48,annualreporttown1998hopk
-0.45666874852899369541248120185628 1:0.11185309 2:0.8844046 3:1 4:0.94502616 5:1 #289,156584,chemicalreports00grah
0.45666874852899369541248120185628 1:0.7507661 2:0.15073273 3:0.5 4:0.064516127 5:0 #192,169,anessayonperson00richgoog
-0.45666874852899369541248120185628 1:0.89663559 2:0.049453411 3:1 4:0.028571429 5:0 #287,279,belfry01sincgoog
0.45666874852899369541248120185628 1:0.45535272 2:0.97254574 3:1 4:1 5:1 #293,43,bookofrevelation00lhot
-0.45666874852899369541248120185628 1:0.45132047 2:0.085055836 3:1 4:0.2 5:1 #191,03,biennialretr1113stat
0.45666874852899369541248120185628 1:0.91649777 2:0.038521603 3:1 4:0.029411765 5:0 #179,171,belfry01sincgoog
-0.45666874852899369541248120185628 1:0.89704096 2:0.055960435 3:1 4:0.028571429 5:0 #315,307,belfry01sincgoog
0.45666874852899369541248120185628 1:0.44521257 2:0.95950156 3:1 4:1 5:1 #105,103,annualreporttown1998hopk
-0.45666874852899369541248120185628 1:0.99545223 2:0.64654636 3:1 4:0.69230771 5:0 #158,5,classifiedbiblio01veal
-0.45666874852899369541248120185628 1:0.96209705 2:0.79273695 3:1 4:0.969697 5:0 #204,3,annualreporttown1998hopk
0.45666874852899369541248120185628 1:0.07597851 2:0.067821786 3:0.2 4:0.025 5:1 #69,54,cu31924021743095
0.45666874852899369541248120185628 1:0.075211048 2:0.077722773 3:0.2 4:0.027777778 5:1 #55,40,cu31924021743095
-0.45666874852899369541248120185628 1:0.09724541 2:0.033383157 3:0.2 4:0.025 5:1 #204,190,chemicalreports00grah
-0.45666874852899369541248120185628 1:0.046327211 2:0.042102642 3:0.5 4:0.024390243 5:1 #158,144,chemicalreports00grah
-0.45666874852899369541248120185628 1:0.054316983 2:0.044768348 3:0.33333334 4:0.028571429 5:1 #286,278,belfry01sincgoog
0.45666874852899369541248120185628 1:0.50655329 2:0.94951284 3:1 4:1 5:0 #164,162,annualreporttown1998hopk
0.45666874852899369541248120185628 1:0.52905506 2:0.91008091 3:1 4:1 5:0 #64,60,classifiedbiblio01veal
-0.45666874852899369541248120185628 1:0.92062819 2:0.98347878 3:1 4:1 5:0 #45,41,brownalumnimonth954brow
0.45666874852899369541248120185628 1:0.082885645 2:0.057425741 3:0.2 4:0.027777778 5:1 #193,178,cu31924021743095
-0.45666874852899369541248120185628 1:0.036486007 2:0.9262622 3:1 4:0.48520711 5:1 #161,00,annualreporttown1998hopk
-0.45666874852899369541248120185628 1:0.037548706 2:0.435341 3:1 4:0.66666669 5:0 #163,5,annualreporttown1998hopk
-0.45666874852899369541248120185628 1:0.020545518 2:0.78011513 3:1 4:0.12658228 5:0 #209,9,annualreporttown1998hopk
0.45666874852899369541248120185628 1:0.45690084 2:0.65007234 3:0.42857143 4:0.66666669 5:1 #22,20,bookofrevelation00lhot
0.45666874852899369541248120185628 1:0.2226762 2:0.14863922 3:0.2 4:0.029411765 5:1 #71,48,anessayonperson00richgoog
-0.45666874852899369541248120185628 1:0.087899096 2:0.12259444 3:0.0625 4:0.08510638 5:1 #106,569,biennialretr1113stat
-0.45666874852899369541248120185628 1:0.089081593 2:0.12473272 3:0.0625 4:0.083333336 5:1 #126,790,biennialretr1113stat
0.45666874852899369541248120185628 1:0.47588164 2:0.96720457 3:1 4:1 5:0 #112,104,belfry01sincgoog
0.45666874852899369541248120185628 1:0.47804639 2:0.96505821 3:1 4:1 5:0 #272,22,bookofrevelation00lhot
-0.45666874852899369541248120185628 1:0.92402375 2:0.98129678 3:1 4:1 5:0 #53,49,brownalumnimonth954brow
-0.45666874852899369541248120185628 1:0.88334614 2:0.95346534 3:1 4:1 5:1 #388,262,cu31924021743095
0.45666874852899369541248120185628 1:0.046209972 2:0.037480477 3:0.33333334 4:0.028571429 5:0 #74,66,belfry01sincgoog
-0.45666874852899369541248120185628 1:0.059292477 2:0.1626628 3:0.07692308 4:0.11363637 5:0 #116,1792,bookofrevelation00lhot
0.45666874852899369541248120185628 1:0.63522536 2:0.76781267 3:1 4:0.71891892 5:1 #16,4,chemicalreports00grah
-0.45666874852899369541248120185628 1:0.8749041 2:0.95148516 3:1 4:1 5:1 #389,361,cu31924021743095
0.45666874852899369541248120185628 1:0.081350729 2:0.08019802 3:0.2 4:0.039999999 5:0 #167,152,cu31924021743095
-0.45666874852899369541248120185628 1:0.082118191 2:0.063861385 3:0.2 4:0.083333336 5:0 #373,358,cu31924021743095
0.45666874852899369541248120185628 1:0.51849294 2:0.95193589 3:1 4:1 5:1 #70,68,annualreporttown1998hopk
-0.45666874852899369541248120185628 1:0.14649415 2:0.90009964 3:1 4:0.9874652 5:1 #294,73,chemicalreports00grah
0.45666874852899369541248120185628 1:0.21961185 2:0.14375436 3:0.2 4:0.029411765 5:1 #145,122,anessayonperson00richgoog
0.45666874852899369541248120185628 1:0.48791316 2:0.96616751 3:1 4:1 5:0 #278,28,bookofrevelation00lhot
-0.45666874852899369541248120185628 1:0.050323866 2:0.071490593 3:0.5 4:0.022222223 5:0 #88,80,bookofrevelation00lhot
-0.45666874852899369541248120185628 1:0.93803054 2:0.071072318 3:1 4:0.63461536 5:0 #52,121,brownalumnimonth954brow
-0.45666874852899369541248120185628 1:0.14774625 2:0.89038366 3:1 4:0.98210293 5:1 #288,44,chemicalreports00grah
-0.45666874852899369541248120185628 1:0.89834023 2:0.98263025 3:1 4:1 5:0 #47,43,brownalumnimonth954brow
-0.45666874852899369541248120185628 1:0.083055094 2:0.046337817 3:1 4:0.011764706 5:1 #212,198,chemicalreports00grah
-0.45666874852899369541248120185628 1:0.10392321 2:0.047583457 3:1 4:0.006289308 5:1 #298,284,chemicalreports00grah
-0.45666874852899369541248120185628 1:0.035848271 2:0.58028966 3:0.10526316 4:0.11111111 5:0 #33,9,brownalumnimonth954brow
0.45666874852899369541248120185628 1:0.89909339 2:0.067474462 3:1 4:0.16666667 5:1 #49,41,biennialretr1113stat
-0.45666874852899369541248120185628 1:0.90190512 2:0.047110878 3:1 4:0.083333336 5:1 #275,267,belfry01sincgoog
0.45666874852899369541248120185628 1:0.53410816 2:0.91070318 3:0.5 4:0.97500002 5:0 #184,180,classifiedbiblio01veal
-0.45666874852899369541248120185628 1:0.92487264 2:0.97880298 3:1 4:1 5:0 #31,27,brownalumnimonth954brow
0.45666874852899369541248120185628 1:0.08513993 2:0.057495844 3:0.33333334 4:0.010526316 5:1 #220,212,biennialretr1113stat
0.45666874852899369541248120185628 1:0.5022468 2:0.94971073 3:1 4:1 5:0 #54,52,annualreporttown1998hopk
-0.45666874852899369541248120185628 1:0.081986599 2:0.12473272 3:0.071428575 4:0.08510638 5:1 #107,579,biennialretr1113stat
-0.45666874852899369541248120185628 1:0.087899096 2:0.1249703 3:0.06666667 4:0.078431375 5:1 #108,588,biennialretr1113stat
0.45666874852899369541248120185628 1:0.49805173 2:0.95084143 3:1 4:1 5:0 #210,208,annualreporttown1998hopk
0.45666874852899369541248120185628 1:0.079815812 2:0.063366339 3:0.2 4:0.027777778 5:1 #215,200,cu31924021743095
0.45666874852899369541248120185628 1:0.091327704 2:0.062376238 3:0.2 4:0.027777778 5:1 #191,176,cu31924021743095
-0.45666874852899369541248120185628 1:0.070138149 2:0.76040745 3:1 4:0.89256197 5:0 #252,4810,annualreporttown1998hopk
0.45666874852899369541248120185628 1:0.92460477 2:0.053617906 3:1 4:0.029411765 5:1 #57,49,belfry01sincgoog
-0.45666874852899369541248120185628 1:0.88272119 2:0.032884903 3:1 4:0.025 5:1 #145,131,chemicalreports00grah
0.45666874852899369541248120185628 1:0.47507092 2:0.96121812 3:1 4:1 5:0 #11,3,belfry01sincgoog
-0.45666874852899369541248120185628 1:0.88257867 2:0.96980196 3:1 4:1 5:0 #382,243,cu31924021743095
0.45666874852899369541248120185628 1:0.082885645 2:0.075247526 3:0.2 4:0.020833334 5:1 #345,330,cu31924021743095
-0.45666874852899369541248120185628 1:0.090150252 2:0.039362233 3:0.2 4:0.027027028 5:1 #214,200,chemicalreports00grah
0.45666874852899369541248120185628 1:0.52956039 2:0.90883636 3:1 4:1 5:0 #188,184,classifiedbiblio01veal
-0.45666874852899369541248120185628 1:0.4859398 2:0.95951194 3:1 4:1 5:0 #271,91,bookofrevelation00lhot
-0.45666874852899369541248120185628 1:0.049238399 2:0.81930912 3:1 4:0.86666667 5:0 #249,3,annualreporttown1998hopk
0.45666874852899369541248120185628 1:0.92338872 2:0.047631443 3:1 4:0.029411765 5:1 #85,77,belfry01sincgoog
-0.45666874852899369541248120185628 1:0.85517532 2:0.027902342 3:1 4:0.025 5:1 #157,143,chemicalreports00grah
0.45666874852899369541248120185628 1:0.47805047 2:0.96039164 3:1 4:1 5:0 #67,65,annualreporttown1998hopk
-0.45666874852899369541248120185628 1:0.87950885 2:0.94306928 3:1 4:1 5:0 #12,77,cu31924021743095
-0.45666874852899369541248120185628 1:0.77651703 2:0.95757073 3:1 4:1 5:0 #274,26,bookofrevelation00lhot
0.45666874852899369541248120185628 1:0.078280888 2:0.076237626 3:0.2 4:0.021739131 5:1 #113,98,cu31924021743095
0.45666874852899369541248120185628 1:0.077513434 2:0.076732673 3:0.2 4:0.022222223 5:1 #57,42,cu31924021743095
0.45666874852899369541248120185628 1:0.49655452 2:0.95080686 3:1 4:1 5:0 #216,208,belfry01sincgoog
-0.45666874852899369541248120185628 1:0.088293262 2:0.12568305 3:0.07692308 4:0.079999998 5:1 #109,598,biennialretr1113stat
-0.45666874852899369541248120185628 1:0.087504931 2:0.44856259 3:0.33333334 4:0.91379309 5:1 #114,054,biennialretr1113stat
-0.45666874852899369541248120185628 1:0.087899096 2:0.50415778 3:0.25 4:0.93103451 5:1 #114,055,biennialretr1113stat
0.45666874852899369541248120185628 1:0.92095661 2:0.05413847 3:1 4:0.029411765 5:0 #27,19,belfry01sincgoog
0.45666874852899369541248120185628 1:0.92176735 2:0.04971369 3:1 4:0.029411765 5:0 #23,15,belfry01sincgoog
-0.45666874852899369541248120185628 1:0.89379811 2:0.054398749 3:1 4:0.028571429 5:0 #217,709,belfry01sincgoog
-0.45666874852899369541248120185628 1:0.88812321 2:0.048152003 3:1 4:0.029411765 5:0 #325,317,belfry01sincgoog
0.45666874852899369541248120185628 1:0.45108885 2:0.95994657 3:1 4:1 5:1 #71,69,annualreporttown1998hopk
0.45666874852899369541248120185628 1:0.45212582 2:0.95972407 3:1 4:1 5:1 #39,37,annualreporttown1998hopk
-0.45666874852899369541248120185628 1:0.46899068 2:0.98412287 3:1 4:1 5:1 #333,325,belfry01sincgoog
0.45666874852899369541248120185628 1:0.088257864 2:0.077722773 3:0.2 4:0.047619049 5:0 #93,78,cu31924021743095
-0.45666874852899369541248120185628 1:0.067058414 2:0.83733869 3:1 4:0.012987013 5:0 #36,9,annualreporttown1998hopk
-0.038884070345072574426126266189385 1:0.067404076 2:0.85425013 3:1 4:0.021645023 5:0 #36,3,annualreporttown1998hopk
0.45666874852899369541248120185628 1:0.64972597 2:0.55658466 3:0.69230771 4:0.55555558 5:1 #18,16,bookofrevelation00lhot
0.45666874852899369541248120185628 1:0.56341588 2:0.8963908 3:1 4:1 5:1 #20,16,classifiedbiblio01veal
-0.45666874852899369541248120185628 1:0.8818112 2:0.76732671 3:1 4:0.92666668 5:1 #390,276,cu31924021743095
0.45666874852899369541248120185628 1:0.86722946 2:0.076237626 3:1 4:0.015267176 5:1 #386,371,cu31924021743095
-0.45666874852899369541248120185628 1:0.91052425 2:0.11285341 3:1 4:0.79807693 5:1 #198,03,biennialretr1113stat
-0.45666874852899369541248120185628 1:0.91091841 2:0.13946305 3:1 4:0.80448717 5:1 #198,02,biennialretr1113stat
0.45666874852899369541248120185628 1:0.38709676 2:0.83509976 3:1 4:0.69565219 5:0 #7,4,brownalumnimonth954brow
0.45666874852899369541248120185628 1:0.4615657 2:0.95150578 3:1 4:1 5:0 #137,135,annualreporttown1998hopk
-0.22952528221139800734817981719971 1:0.058573853 2:0.97911471 3:0.25 4:1 5:0 #60,56,brownalumnimonth954brow
-0.45666874852899369541248120185628 1:0.10744436 2:0.9490099 3:0.16666667 4:1 5:0 #34,18,cu31924021743095
0.45666874852899369541248120185628 1:0.91811919 2:0.045288913 3:1 4:0.028571429 5:1 #241,233,belfry01sincgoog
0.45666874852899369541248120185628 1:0.92217267 2:0.047110878 3:1 4:0.029411765 5:1 #51,43,belfry01sincgoog
-0.45666874852899369541248120185628 1:0.89744627 2:0.050494533 3:1 4:0.028571429 5:1 #285,277,belfry01sincgoog
0.45666874852899369541248120185628 1:0.43052047 2:0.91101432 3:1 4:1 5:0 #25,21,classifiedbiblio01veal
-0.45666874852899369541248120185628 1:0.93530887 2:0.89138019 3:1 4:1 5:1 #288,11,chemicalreports00grah
0.45666874852899369541248120185628 1:0.083653107 2:0.067821786 3:0.2 4:0.125 5:0 #361,346,cu31924021743095
-0.45666874852899369541248120185628 1:0.21901529 2:0.11876559 3:1 4:0.019607844 5:0 #8,1994,brownalumnimonth954brow
-0.45666874852899369541248120185628 1:0.29968119 2:0.079938002 3:1 4:0.012589928 5:0 #229,3,annualreporttown1998hopk
0.45666874852899369541248120185628 1:0.5157634 2:0.95482731 3:1 4:1 5:1 #156,154,annualreporttown1998hopk
0.45666874852899369541248120185628 1:0.51682609 2:0.95194864 3:1 4:1 5:1 #140,138,annualreporttown1998hopk
-0.45666874852899369541248120185628 1:0.48277259 2:0.97839665 3:1 4:1 5:1 #304,296,belfry01sincgoog
0.45666874852899369541248120185628 1:0.0664775 2:0.041644976 3:0.33333334 4:0.028571429 5:0 #210,202,belfry01sincgoog
-0.45666874852899369541248120185628 1:0.035376184 2:0.87988424 3:0.06666667 4:0.95652175 5:1 #193,50,bookofrevelation00lhot
-0.45666874852899369541248120185628 1:0.87189597 2:0.053219292 3:1 4:0.022727273 5:0 #173,105,biennialretr1113stat
0.45666874852899369541248120185628 1:0.46050301 2:0.9652347 3:1 4:1 5:1 #151,149,annualreporttown1998hopk
-0.45666874852899369541248120185628 1:0.79801071 2:0.092853673 3:1 4:0.01754386 5:0 #134,8,cairngormmounta01burtgoog
0.45666874852899369541248120185628 1:0.91771382 2:0.043206662 3:1 4:0.028571429 5:0 #17,9,belfry01sincgoog
-0.43924441417175930091332247684477 1:0.94651079 2:0.082816653 3:1 4:0.059352517 5:0 #229,00,annualreporttown1998hopk
-0.45666874852899369541248120185628 1:0.91170675 2:0.075077213 3:1 4:0.054054055 5:0 #71,4,biennialretr1113stat
0.45666874852899369541248120185628 1:0.07597851 2:0.082673267 3:0.2 4:0.03846154 5:1 #153,138,cu31924021743095
0.45666874852899369541248120185628 1:0.082118191 2:0.085148513 3:0.2 4:0.045454547 5:1 #85,70,cu31924021743095
0.45666874852899369541248120185628 1:0.53158158 2:0.90074676 3:1 4:1 5:0 #116,112,classifiedbiblio01veal
-0.45666874852899369541248120185628 1:0.048330843 2:0.26280752 3:0.0625 4:0.22222222 5:1 #221,5,bookofrevelation00lhot
-0.45666874852899369541248120185628 1:0.038365722 2:0.38031837 3:0.071428575 4:0.3488372 5:1 #71,251,bookofrevelation00lhot
0.45666874852899369541248120185628 1:0.91649777 2:0.053878188 3:1 4:0.028571429 5:0 #89,81,belfry01sincgoog
0.45666874852899369541248120185628 1:0.91406566 2:0.045288913 3:1 4:0.028571429 5:0 #107,99,belfry01sincgoog
-0.45666874852899369541248120185628 1:0.87596273 2:0.04450807 3:1 4:0.029411765 5:0 #329,331,belfry01sincgoog
-0.45666874852899369541248120185628 1:0.87677342 2:0.049453411 3:1 4:0.028571429 5:0 #267,259,belfry01sincgoog
0.45666874852899369541248120185628 1:0.079815812 2:0.08118812 3:0.2 4:0.035714287 5:1 #157,142,cu31924021743095
0.45666874852899369541248120185628 1:0.07597851 2:0.086138614 3:0.2 4:0.02631579 5:1 #285,270,cu31924021743095
-0.45666874852899369541248120185628 1:0.092237063 2:0.042102642 3:0.2 4:0.02631579 5:1 #216,202,chemicalreports00grah
-0.45666874852899369541248120185628 1:0.11101837 2:0.85500747 3:1 4:0.90837699 5:1 #289,150354,chemicalreports00grah
0.45666874852899369541248120185628 1:0.91366029 2:0.045028631 3:1 4:0.028571429 5:0 #137,129,belfry01sincgoog
-0.45666874852899369541248120185628 1:0.87623179 2:0.061772391 3:1 4:0.019607844 5:0 #147,130,biennialretr1113stat
0.45666874852899369541248120185628 1:0.45592812 2:0.96061414 3:1 4:1 5:1 #99,97,annualreporttown1998hopk
0.45666874852899369541248120185628 1:0.22192514 2:0.10857974 3:0.25 4:0.035714287 5:0 #27,16,cairngormmounta01burtgoog
-0.45666874852899369541248120185628 1:0.10392321 2:0.031888392 3:0.2 4:0.025 5:1 #208,194,chemicalreports00grah
-0.45666874852899369541248120185628 1:0.11018364 2:0.054559045 3:0.2 4:0.0062500001 5:1 #28,14,chemicalreports00grah
0.45666874852899369541248120185628 1:0.48427239 2:0.95149088 3:1 4:1 5:0 #10,8,annualreporttown1998hopk
0.45666874852899369541248120185628 1:0.47632214 2:0.95416111 3:1 4:1 5:0 #6,4,annualreporttown1998hopk
-0.45666874852899369541248120185628 1:0.89409053 2:0.95396042 3:1 4:0.98795182 5:0 #382,44,cu31924021743095
0.45666874852899369541248120185628 1:0.082118191 2:0.064356439 3:0.2 4:0.027027028 5:1 #263,248,cu31924021743095
-0.45666874852899369541248120185628 1:0.043570671 2:0.87710363 3:1 4:0.80487806 5:0 #211,9,annualreporttown1998hopk
-0.45666874852899369541248120185628 1:0.89663559 2:0.051535659 3:1 4:0.028571429 5:1 #305,297,belfry01sincgoog
0.45666874852899369541248120185628 1:0.43810004 2:0.91288114 3:1 4:1 5:0 #29,25,classifiedbiblio01veal
-0.45666874852899369541248120185628 1:0.43054488 2:0.43811882 3:0.5 4:0.44117647 5:1 #80,4,cu31924021743095
-0.45666874852899369541248120185628 1:0.48530143 2:0.94413894 3:1 4:1 5:0 #87,8,bookofrevelation00lhot
0.45666874852899369541248120185628 1:0.90352654 2:0.040603854 3:1 4:0.028571429 5:1 #243,235,belfry01sincgoog
0.45666874852899369541248120185628 1:0.91284961 2:0.045028631 3:1 4:0.028571429 5:1 #45,37,belfry01sincgoog
-0.45666874852899369541248120185628 1:0.87353921 2:0.060288988 3:1 4:0.0034722222 5:1 #35,21,chemicalreports00grah
-0.45666874852899369541248120185628 1:0.89704096 2:0.052316502 3:1 4:0.028571429 5:1 #303,295,belfry01sincgoog
0.45666874852899369541248120185628 1:0.4325417 2:0.90759176 3:1 4:1 5:0 #117,113,classifiedbiblio01veal
0.45666874852899369541248120185628 1:0.076745972 2:0.072277226 3:0.2 4:0.025 5:1 #109,94,cu31924021743095
-0.45666874852899369541248120185628 1:0.10767946 2:0.032137517 3:1 4:0.01754386 5:1 #154,140,chemicalreports00grah
0.45666874852899369541248120185628 1:0.52147549 2:0.9172371 3:1 4:1 5:0 #60,56,classifiedbiblio01veal
0.45666874852899369541248120185628 1:0.51894897 2:0.91381454 3:1 4:1 5:0 #174,170,classifiedbiblio01veal
0.45666874852899369541248120185628 1:0.047426023 2:0.036439355 3:0.33333334 4:0.029411765 5:1 #12,4,belfry01sincgoog
0.45666874852899369541248120185628 1:0.1521482 2:0.055357568 3:1 4:0.0052631581 5:1 #196,188,biennialretr1113stat
-0.45666874852899369541248120185628 1:0.86672324 2:0.94139653 3:1 4:0.97674417 5:0 #61,1874,brownalumnimonth954brow
-0.45666874852899369541248120185628 1:0.035874441 2:0.35947901 3:0.050000001 4:0.33333334 5:0 #233,8,bookofrevelation00lhot
-0.45666874852899369541248120185628 1:0.035376184 2:0.37858176 3:0.071428575 4:0.35555556 5:0 #233,30,bookofrevelation00lhot
0.45666874852899369541248120185628 1:0.92217267 2:0.06168662 3:1 4:0.029411765 5:1 #105,97,belfry01sincgoog
0.45666874852899369541248120185628 1:0.92217267 2:0.052576784 3:1 4:0.028571429 5:1 #33,25,belfry01sincgoog
-0.45666874852899369541248120185628 1:0.88812321 2:0.045549192 3:1 4:0.028571429 5:1 #301,293,belfry01sincgoog
-0.45666874852899369541248120185628 1:0.89177138 2:0.053878188 3:1 4:0.028571429 5:1 #297,289,belfry01sincgoog
0.45666874852899369541248120185628 1:0.16143791 2:0.099445328 3:0.2 4:0.14285715 5:0 #43,20,anessayonperson00richgoog
0.45666874852899369541248120185628 1:0.14917491 2:0.098809525 3:0.2 4:0.06666667 5:0 #55,32,anessayonperson00richgoog
-0.45666874852899369541248120185628 1:0.08877179 2:0.051015098 3:0.33333334 4:0.028571429 5:0 #330,322,belfry01sincgoog
0.45666874852899369541248120185628 1:0.51080412 2:0.95571303 3:1 4:1 5:1 #128,126,annualreporttown1998hopk
-0.45666874852899369541248120185628 1:0.88718343 2:0.9480198 3:1 4:0.99236643 5:1 #386,107,cu31924021743095
0.45666874852899369541248120185628 1:0.17712319 2:0.099416628 3:0.25 4:0.027777778 5:0 #115,104,cairngormmounta01burtgoog
-0.45666874852899369541248120185628 1:0.086322427 2:0.066048943 3:0.33333334 4:0.019607844 5:0 #44,30,biennialretr1113stat
0.45666874852899369541248120185628 1:0.51718032 2:0.95062 3:1 4:1 5:1 #124,122,annualreporttown1998hopk
-0.45666874852899369541248120185628 1:0.20200334 2:0.92177379 3:1 4:0.99088144 5:1 #310,446,chemicalreports00grah
0.45666874852899369541248120185628 1:0.19433817 2:0.095770538 3:0.25 4:0.035714287 5:0 #117,106,cairngormmounta01burtgoog
-0.45666874852899369541248120185628 1:0.088293262 2:0.12544547 3:0.07692308 4:0.079999998 5:0 #115,661,biennialretr1113stat
0.45666874852899369541248120185628 1:0.5060491 2:0.95794392 3:1 4:1 5:1 #104,102,annualreporttown1998hopk
-0.45666874852899369541248120185628 1:0.89774626 2:0.92526156 3:1 4:1 5:1 #62,100,chemicalreports00grah
-0.45666874852899369541248120185628 1:0.89178818 2:0.9480198 3:1 4:0.9849624 5:1 #385,12,cu31924021743095
0.45666874852899369541248120185628 1:0.048236724 2:0.043987505 3:0.33333334 4:0.029411765 5:0 #120,112,belfry01sincgoog
0.45666874852899369541248120185628 1:0.046209972 2:0.046850599 3:0.33333334 4:0.028571429 5:0 #164,156,belfry01sincgoog
-0.45666874852899369541248120185628 1:0.094041348 2:0.054919314 3:0.33333334 4:0.029411765 5:0 #328,320,belfry01sincgoog
0.45666874852899369541248120185628 1:0.51363796 2:0.95372009 3:1 4:1 5:1 #144,142,annualreporttown1998hopk
-0.45666874852899369541248120185628 1:0.049235992 2:0.20760599 3:1 4:0.064327486 5:0 #55,87,brownalumnimonth954brow
0.45666874852899369541248120185628 1:0.61017597 2:0.61740398 3:0.60000002 4:0.6557377 5:0 #133,2,cairngormmounta01burtgoog
-0.45666874852899369541248120185628 1:0.12787814 2:0.27967227 3:1 4:0.81818181 5:0 #231,1998,annualreporttown1998hopk
-0.45666874852899369541248120185628 1:0.059156924 2:0.38485384 3:1 4:0.50574714 5:0 #253,5140,annualreporttown1998hopk
0.45666874852899369541248120185628 1:0.91325498 2:0.065590836 3:1 4:0.028571429 5:1 #15,7,belfry01sincgoog
0.45666874852899369541248120185628 1:0.91487634 2:0.057001561 3:1 4:0.029411765 5:1 #91,83,belfry01sincgoog
0.45666874852899369541248120185628 1:0.44871148 2:0.90728062 3:1 4:1 5:0 #27,23,classifiedbiblio01veal
-0.45666874852899369541248120185628 1:0.94156927 2:0.13926259 3:1 4:0.0625 5:1 #368,5,chemicalreports00grah
-0.45666874852899369541248120185628 1:0.95242071 2:0.19307424 3:1 4:0.10290828 5:1 #288,9,chemicalreports00grah
0.45666874852899369541248120185628 1:0.05837049 2:0.045549192 3:0.33333334 4:0.07692308 5:0 #252,244,belfry01sincgoog
-0.45666874852899369541248120185628 1:0.083650187 2:0.15732087 3:0.0625 4:0.07692308 5:0 #110,1998,annualreporttown1998hopk
0.45666874852899369541248120185628 1:0.54067713 2:0.90665835 3:1 4:1 5:1 #52,48,classifiedbiblio01veal
-0.45666874852899369541248120185628 1:0.87567151 2:0.94504952 3:1 4:0.99056602 5:1 #387,361,cu31924021743095
0.45666874852899369541248120185628 1:0.059586544 2:0.045288913 3:0.33333334 4:0.028571429 5:0 #162,154,belfry01sincgoog
-0.45666874852899369541248120185628 1:0.081592433 2:0.12924685 3:0.071428575 4:0.08510638 5:0 #133,870,biennialretr1113stat
0.45666874852899369541248120185628 1:0.54168773 2:0.91692597 3:1 4:1 5:1 #168,164,classifiedbiblio01veal
-0.45666874852899369541248120185628 1:0.13564274 2:0.88066769 3:1 4:0.97239262 5:1 #292,25,chemicalreports00grah
0.45666874852899369541248120185628 1:0.21767406 2:0.10500729 3:0.25 4:0.035714287 5:0 #123,112,cairngormmounta01burtgoog
-0.45666874852899369541248120185628 1:0.085534096 2:0.12449513 3:0.07692308 4:0.083333336 5:0 #121,737,biennialretr1113stat
0.45666874852899369541248120185628 1:0.49844453 2:0.9590565 3:1 4:1 5:1 #21,19,annualreporttown1998hopk
-0.45666874852899369541248120185628 1:0.88411361 2:0.94108909 3:1 4:0.99115044 5:1 #392,178,cu31924021743095
0.45666874852899369541248120185628 1:0.052290231 2:0.049973972 3:0.33333334 4:0.028571429 5:0 #38,30,belfry01sincgoog
0.45666874852899369541248120185628 1:0.51192534 2:0.9539386 3:1 4:1 5:1 #96,94,annualreporttown1998hopk
-0.45666874852899369541248120185628 1:0.088687427 2:0.064861014 3:0.33333334 4:0.028571429 5:0 #70,02,biennialretr1113stat
-0.45666874852899369541248120185628 1:0.4852047 2:0.9742322 3:1 4:1 5:1 #276,268,belfry01sincgoog
0.45666874852899369541248120185628 1:0.21193573 2:0.10379193 3:0.25 4:0.037037037 5:0 #131,120,cairngormmounta01burtgoog
-0.45666874852899369541248120185628 1:0.088687427 2:0.1249703 3:0.071428575 4:0.08510638 5:0 #122,750,biennialretr1113stat
0.45666874852899369541248120185628 1:0.50501209 2:0.95660883 3:1 4:1 5:1 #76,74,annualreporttown1998hopk
0.45666874852899369541248120185628 1:0.19365928 2:0.10470189 3:0.25 4:0.035714287 5:0 #13,2,cairngormmounta01burtgoog
-0.45666874852899369541248120185628 1:0.90855342 2:0.9037776 3:1 4:0.99358976 5:1 #198,02,biennialretr1113stat
-0.45666874852899369541248120185628 1:0.093023255 2:0.065811358 3:0.33333334 4:0.023255814 5:0 #94,80,biennialretr1113stat
0.45666874852899369541248120185628 1:0.51261663 2:0.95238096 3:1 4:1 5:1 #92,90,annualreporttown1998hopk
-0.45666874852899369541248120185628 1:0.14649415 2:0.88689584 3:1 4:0.96796656 5:1 #294,72,chemicalreports00grah
0.45666874852899369541248120185628 1:0.20007651 2:0.1093826 3:0.25 4:0.035714287 5:0 #95,84,cairngormmounta01burtgoog
-0.45666874852899369541248120185628 1:0.090264089 2:0.12592065 3:0.083333336 4:0.078431375 5:0 #152,1035,biennialretr1113stat
0.45666874852899369541248120185628 1:0.47286555 2:0.96372944 3:1 4:1 5:1 #77,75,annualreporttown1998hopk
-0.45666874852899369541248120185628 1:0.90253264 2:0.92277229 3:1 4:0.9852941 5:1 #383,3,cu31924021743095
0.45666874852899369541248120185628 1:0.063640051 2:0.045288913 3:0.33333334 4:0.028571429 5:0 #184,176,belfry01sincgoog
0.45666874852899369541248120185628 1:0.51399219 2:0.95017713 3:1 4:1 5:1 #148,146,annualreporttown1998hopk
0.45666874852899369541248120185628 1:0.53865588 2:0.90541381 3:1 4:1 5:1 #38,34,classifiedbiblio01veal
-0.45666874852899369541248120185628 1:0.75208682 2:0.9539113 3:1 4:1 5:1 #65,2,chemicalreports00grah
-0.45666874852899369541248120185628 1:0.74248749 2:0.95216739 3:1 4:1 5:1 #369,2,chemicalreports00grah
0.45666874852899369541248120185628 1:0.09105242 2:0.050130673 3:0.33333334 4:0.025 5:0 #178,170,biennialretr1113stat
0.45666874852899369541248120185628 1:0.091840759 2:0.056070324 3:0.33333334 4:0.02 5:0 #148,140,biennialretr1113stat
-0.45666874852899369541248120185628 1:0.088687427 2:0.12639582 3:0.071428575 4:0.08510638 5:0 #153,1044,biennialretr1113stat
0.45666874852899369541248120185628 1:0.50726175 2:0.95504874 3:1 4:1 5:1 #116,114,annualreporttown1998hopk
0.45666874852899369541248120185628 1:0.53612936 2:0.91194773 3:1 4:1 5:1 #40,36,classifiedbiblio01veal
-0.45666874852899369541248120185628 1:0.097662769 2:0.060538117 3:1 4:0.012658228 5:1 #38,24,chemicalreports00grah
-0.45666874852899369541248120185628 1:0.1105142 2:0.9559406 3:0.66666669 4:1 5:1 #216,85,cu31924021743095
0.45666874852899369541248120185628 1:0.9027546 2:0.045590434 3:1 4:0.024390243 5:1 #15,3,chemicalreports00grah
-0.45666874852899369541248120185628 1:0.88272119 2:0.055804685 3:1 4:0.030303031 5:0 #31,17,chemicalreports00grah
-0.45666874852899369541248120185628 1:0.87977928 2:0.065811358 3:1 4:0.01923077 5:0 #111,108,biennialretr1113stat
0.45666874852899369541248120185628 1:0.07597851 2:0.082673267 3:0.2 4:0.029411765 5:1 #79,64,cu31924021743095
0.45666874852899369541248120185628 1:0.078280888 2:0.084158413 3:0.2 4:0.027777778 5:1 #289,274,cu31924021743095
-0.45666874852899369541248120185628 1:0.074290484 2:0.12655705 3:0.1 4:0.073170729 5:1 #49,750,chemicalreports00grah
0.45666874852899369541248120185628 1:0.91244429 2:0.055179592 3:1 4:0.028571429 5:0 #99,91,belfry01sincgoog
0.45666874852899369541248120185628 1:0.52147549 2:0.91039205 3:1 4:1 5:0 #156,152,classifiedbiblio01veal
0.45666874852899369541248120185628 1:0.092234924 2:0.05583274 3:0.33333334 4:0.020833334 5:0 #150,142,biennialretr1113stat
-0.45666874852899369541248120185628 1:0.092654422 2:0.042102642 3:0.2 4:0.02631579 5:1 #230,216,chemicalreports00grah
-0.45666874852899369541248120185628 1:0.46336535 2:0.91474795 3:1 4:1 5:0 #63,39,classifiedbiblio01veal
-0.45666874852899369541248120185628 1:0.40525517 2:0.89887989 3:1 4:1 5:0 #5,1919,classifiedbiblio01veal
0.45666874852899369541248120185628 1:0.084420569 2:0.071782179 3:0.2 4:0.023809524 5:1 #267,252,cu31924021743095
0.45666874852899369541248120185628 1:0.081350729 2:0.066336632 3:0.2 4:0.027777778 5:1 #65,50,cu31924021743095
-0.45666874852899369541248120185628 1:0.10016695 2:0.037369207 3:0.2 4:0.025 5:1 #182,168,chemicalreports00grah
0.45666874852899369541248120185628 1:0.48330843 2:0.93892908 3:1 4:1 5:0 #15,2,bookofrevelation00lhot
-0.45666874852899369541248120185628 1:0.089732885 2:0.059043348 3:0.2 4:0.018518519 5:1 #30,16,chemicalreports00grah
0.45666874852899369541248120185628 1:0.52349669 2:0.90385813 3:1 4:1 5:0 #106,102,classifiedbiblio01veal
0.45666874852899369541248120185628 1:0.51591712 2:0.90852523 3:1 4:1 5:0 #58,54,classifiedbiblio01veal
-0.45666874852899369541248120185628 1:0.88334614 2:0.93712872 3:1 4:0.97590363 5:0 #382,158,cu31924021743095
0.45666874852899369541248120185628 1:0.079815812 2:0.071782179 3:0.2 4:0.024390243 5:1 #63,48,cu31924021743095
-0.45666874852899369541248120185628 1:0.14898132 2:0.97786784 3:1 4:0.83030301 5:0 #16,1994,brownalumnimonth954brow
-0.45666874852899369541248120185628 1:0.18907708 2:0.8444593 3:1 4:0.94871795 5:0 #69,2,annualreporttown1998hopk
0.45666874852899369541248120185628 1:0.18859984 2:0.084346138 3:0.25 4:0.018867925 5:1 #149,18,cairngormmounta01burtgoog
0.45666874852899369541248120185628 1:0.092095166 2:0.070792079 3:0.2 4:0.027777778 5:1 #349,334,cu31924021743095
-0.45666874852899369541248120185628 1:0.10601002 2:0.034379672 3:0.2 4:0.025641026 5:1 #224,210,chemicalreports00grah
0.45666874852899369541248120185628 1:0.50126326 2:0.91225886 3:1 4:1 5:0 #62,58,classifiedbiblio01veal
-0.45666874852899369541248120185628 1:0.30902642 2:0.1387503 3:0.11111111 4:0.10204082 5:1 #112,3,biennialretr1113stat
0.45666874852899369541248120185628 1:0.4603335 2:0.91910392 3:1 4:1 5:0 #13,9,classifiedbiblio01veal
-0.45666874852899369541248120185628 1:0.095993325 2:0.61011457 3:1 4:0.91549295 5:1 #53,300,chemicalreports00grah
-0.45666874852899369541248120185628 1:0.095993325 2:0.59541607 3:1 4:0.88732392 5:1 #53,290,chemicalreports00grah
0.45666874852899369541248120185628 1:0.90483308 2:0.072937772 3:1 4:0.022222223 5:0 #83,81,bookofrevelation00lhot
0.45666874852899369541248120185628 1:0.90067011 2:0.076265149 3:1 4:0.016528925 5:0 #213,205,biennialretr1113stat
-0.45666874852899369541248120185628 1:0.87395662 2:0.060538117 3:1 4:0.024390243 5:0 #33,19,chemicalreports00grah
0.45666874852899369541248120185628 1:0.44668791 2:0.95239151 3:1 4:1 5:1 #149,147,annualreporttown1998hopk
-0.45666874852899369541248120185628 1:0.87443948 2:0.062807523 3:1 4:0.023255814 5:0 #55,58,bookofrevelation00lhot
0.45666874852899369541248120185628 1:0.42344618 2:0.91972619 3:1 4:1 5:1 #35,31,classifiedbiblio01veal
-0.45666874852899369541248120185628 1:0.8749041 2:0.93168318 3:1 4:0.993007 5:1 #389,266,cu31924021743095
0.45666874852899369541248120185628 1:0.056749087 2:0.053097345 3:0.33333334 4:0.028571429 5:0 #186,178,belfry01sincgoog
-0.45666874852899369541248120185628 1:0.088293262 2:0.12520789 3:0.071428575 4:0.086956523 5:0 #140,929,biennialretr1113stat
-0.45666874852899369541248120185628 1:0.031409167 2:0.77836657 3:0.125 4:0.32163742 5:0 #55,185,brownalumnimonth954brow
-0.45666874852899369541248120185628 1:0.035229202 2:0.74345386 3:0.16666667 4:0.27586207 5:0 #57,1994,brownalumnimonth954brow
0.45666874852899369541248120185628 1:0.89947307 2:0.066371679 3:1 4:0.11764706 5:1 #143,135,belfry01sincgoog
0.45666874852899369541248120185628 1:0.91203892 2:0.046590317 3:1 4:0.028571429 5:1 #233,225,belfry01sincgoog
-0.45666874852899369541248120185628 1:0.88933927 2:0.04971369 3:1 4:0.028571429 5:1 #321,313,belfry01sincgoog
0.45666874852899369541248120185628 1:0.4598282 2:0.91443682 3:1 4:1 5:0 #31,27,classifiedbiblio01veal
-0.45666874852899369541248120185628 1:0.85264772 2:0.27970296 3:1 4:0.53146851 5:1 #389,42,cu31924021743095
-0.45666874852899369541248120185628 1:0.90636992 2:0.24752475 3:1 4:0.51048952 5:1 #389,9,cu31924021743095
0.45666874852899369541248120185628 1:0.8687644 2:0.072277226 3:1 4:0.015748031 5:1 #388,373,cu31924021743095
-0.45666874852899369541248120185628 1:0.88135594 2:0.17747684 3:1 4:0.84126985 5:1 #200,03,biennialretr1113stat
0.45666874852899369541248120185628 1:0.19127774 2:0.11035489 3:0.25 4:0.035714287 5:0 #89,78,cairngormmounta01burtgoog
-0.45666874852899369541248120185628 1:0.30271974 2:0.098835826 3:1 4:0.011560693 5:0 #204,5,biennialretr1113stat
0.45666874852899369541248120185628 1:0.47563082 2:0.96039164 3:1 4:1 5:1 #61,59,annualreporttown1998hopk
-0.45666874852899369541248120185628 1:0.030884808 2:0.90582961 3:1 4:0.078147613 5:1 #295,14,chemicalreports00grah
0.45666874852899369541248120185628 1:0.22270398 2:0.066286527 3:0.33333334 4:0.018181818 5:0 #36,28,biennialretr1113stat
0.45666874852899369541248120185628 1:0.46768624 2:0.97060454 3:1 4:0.9512195 5:1 #295,45,bookofrevelation00lhot
-0.45666874852899369541248120185628 1:0.94580233 2:0.82595217 3:1 4:0.98920864 5:0 #229,3,annualreporttown1998hopk
-0.45666874852899369541248120185628 1:0.92773646 2:0.8354739 3:1 4:0.99267399 5:0 #160,3,annualreporttown1998hopk
0.45666874852899369541248120185628 1:0.056801196 2:0.063675836 3:0.25 4:0.022727273 5:1 #208,206,bookofrevelation00lhot
0.45666874852899369541248120185628 1:0.026753141 2:0.056220718 3:0.33333334 4:0.028571429 5:1 #56,48,belfry01sincgoog
-0.45666874852899369541248120185628 1:0.10183639 2:0.039362233 3:0.2 4:0.02631579 5:1 #200,186,chemicalreports00grah
-0.45666874852899369541248120185628 1:0.095575958 2:0.047085203 3:0.2 4:0.025641026 5:1 #250,236,chemicalreports00grah
0.45666874852899369541248120185628 1:0.51035875 2:0.91008091 3:1 4:1 5:0 #176,172,classifiedbiblio01veal
-0.45666874852899369541248120185628 1:0.14736097 2:0.85717452 3:1 4:0.91176468 5:0 #247,1998,annualreporttown1998hopk
-0.45666874852899369541248120185628 1:0.24165276 2:0.64798206 3:1 4:1 5:0 #390,310,chemicalreports00grah
0.45666874852899369541248120185628 1:0.2145046 2:0.1444522 3:0.2 4:0.028571429 5:1 #51,28,anessayonperson00richgoog
-0.45666874852899369541248120185628 1:0.11602671 2:0.053313404 3:0.2 4:0.0080000004 5:1 #26,12,chemicalreports00grah
-0.45666874852899369541248120185628 1:0.110601 2:0.034628801 3:0.2 4:0.025 5:1 #190,176,chemicalreports00grah
0.45666874852899369541248120185628 1:0.50833756 2:0.90945864 3:1 4:1 5:0 #140,136,classifiedbiblio01veal
0.45666874852899369541248120185628 1:0.5063163 2:0.90976977 3:1 4:1 5:0 #190,186,classifiedbiblio01veal
-0.45666874852899369541248120185628 1:0.87950885 2:0.93564355 3:1 4:0.97435898 5:0 #155,260,cu31924021743095
0.45666874852899369541248120185628 1:0.079815812 2:0.059900992 3:0.2 4:0.034482758 5:1 #377,362,cu31924021743095
-0.45666874852899369541248120185628 1:0.20200334 2:0.90807176 3:1 4:0.96960485 5:1 #310,428,chemicalreports00grah
0.45666874852899369541248120185628 1:0.21690895 2:0.092853673 3:0.25 4:0.037037037 5:1 #75,64,cairngormmounta01burtgoog
0.45666874852899369541248120185628 1:0.50535774 2:0.95638627 3:1 4:1 5:1 #48,46,annualreporttown1998hopk
-0.45666874852899369541248120185628 1:0.11227045 2:0.034628801 3:0.2 4:0.025 5:1 #206,192,chemicalreports00grah
-0.45666874852899369541248120185628 1:0.84065121 2:0.94952857 3:1 4:0.97297299 5:0 #284,00,bookofrevelation00lhot
-0.45666874852899369541248120185628 1:0.079815812 2:0.076237626 3:0.2 4:0.025 5:1 #371,356,cu31924021743095
-0.45666874852899369541248120185628 1:0.079815812 2:0.072277226 3:0.2 4:0.027777778 5:1 #365,350,cu31924021743095
0.45666874852899369541248120185628 1:0.51490653 2:0.90354699 3:1 4:1 5:0 #202,198,classifiedbiblio01veal
0.45666874852899369541248120185628 1:0.5133906 2:0.90385813 3:1 4:1 5:0 #16,12,classifiedbiblio01veal
-0.45666874852899369541248120185628 1:0.86104387 2:0.93680465 3:1 4:0.96875 5:0 #6,125,annualreporttown1998hopk
0.45666874852899369541248120185628 1:0.082885645 2:0.067326732 3:0.2 4:0.027777778 5:1 #159,144,cu31924021743095
-0.45666874852899369541248120185628 1:0.033383157 2:0.39797395 3:0.090909094 4:0.37777779 5:1 #41,17,bookofrevelation00lhot
-0.45666874852899369541248120185628 1:0.029632721 2:0.25784755 3:1 4:0.010130246 5:1 #295,12,chemicalreports00grah
0.45666874852899369541248120185628 1:0.91122824 2:0.050234254 3:1 4:0.028571429 5:0 #171,163,belfry01sincgoog
-0.45666874852899369541248120185628 1:0.87434131 2:0.058042686 3:1 4:0.028571429 5:0 #327,319,belfry01sincgoog
0.45666874852899369541248120185628 1:0.45281714 2:0.95950156 3:1 4:1 5:1 #97,95,annualreporttown1998hopk
-0.45666874852899369541248120185628 1:0.89975202 2:0.093224093 3:1 4:0.10810811 5:0 #116,16,annualreporttown1998hopk
-0.45666874852899369541248120185628 1:0.86751682 2:0.1173605 3:1 4:0.032608695 5:0 #266,995,annualreporttown1998hopk
0.45666874852899369541248120185628 1:0.90433723 2:0.03826132 3:1 4:0.028571429 5:0 #139,131,belfry01sincgoog
0.45666874852899369541248120185628 1:0.87307847 2:0.066524118 3:1 4:0.0067567569 5:0 #201,193,biennialretr1113stat
-0.45666874852899369541248120185628 1:0.87231457 2:0.056741282 3:1 4:0.028571429 5:0 #323,315,belfry01sincgoog
-0.45666874852899369541248120185628 1:0.87899095 2:0.063197911 3:1 4:0.035714287 5:0 #73,05,biennialretr1113stat
0.45666874852899369541248120185628 1:0.081350729 2:0.090099007 3:0.2 4:0.025641026 5:1 #257,242,cu31924021743095
0.45666874852899369541248120185628 1:0.079815812 2:0.086138614 3:0.2 4:0.027777778 5:1 #287,272,cu31924021743095
-0.45666874852899369541248120185628 1:0.10225376 2:0.040109616 3:0.2 4:0.025 5:1 #218,204,chemicalreports00grah
0.45666874852899369541248120185628 1:0.51238 2:0.90728062 3:1 4:1 5:0 #108,104,classifiedbiblio01veal
0.45666874852899369541248120185628 1:0.089025326 2:0.078712873 3:0.2 4:0.021739131 5:1 #269,254,cu31924021743095
-0.45666874852899369541248120185628 1:0.10434057 2:0.051071249 3:1 4:0.0090909088 5:1 #276,262,chemicalreports00grah
-0.45666874852899369541248120185628 1:0.76103568 2:0.95168328 3:0.44444445 4:0.99504948 5:0 #58,1976,brownalumnimonth954brow
-0.45666874852899369541248120185628 1:0.61320031 2:0.14554456 3:1 4:1 5:0 #2,095,cu31924021743095
-0.45666874852899369541248120185628 1:0.43514964 2:0.054950494 3:1 4:0.66666669 5:0 #2,1914,cu31924021743095
0.45666874852899369541248120185628 1:0.46664363 2:0.95816642 3:1 4:0.76712328 5:1 #59,57,annualreporttown1998hopk
0.45666874852899369541248120185628 1:0.50478214 2:0.94862711 3:1 4:0.88 5:1 #162,160,annualreporttown1998hopk
-0.45666874852899369541248120185628 1:0.87901831 2:0.19626169 3:1 4:0.15151516 5:0 #7,167,annualreporttown1998hopk
-0.45666874852899369541248120185628 1:0.43745205 2:0.94999999 3:1 4:0.37062937 5:1 #389,219,cu31924021743095
0.45666874852899369541248120185628 1:0.058775842 2:0.060385216 3:0.33333334 4:0.028571429 5:0 #72,64,belfry01sincgoog
-0.45666874852899369541248120185628 1:0.13598739 2:0.55286294 3:0.2 4:0.10576923 5:1 #198,2,biennialretr1113stat
0.45666874852899369541248120185628 1:0.48518896 2:0.82693648 3:1 4:1 5:0 #35,12,anessayonperson00richgoog
-0.45666874852899369541248120185628 1:0.87950885 2:0.92029703 3:1 4:0.95652175 5:0 #12,73,cu31924021743095
0.45666874852899369541248120185628 1:0.083653107 2:0.066336632 3:0.2 4:0.030303031 5:1 #379,364,cu31924021743095
-0.45666874852899369541248120185628 1:0.099332221 2:0.043348283 3:0.2 4:0.025 5:1 #196,182,chemicalreports00grah
-0.45666874852899369541248120185628 1:0.032235213 2:0.74047828 3:1 4:0.053763442 5:0 #205,5,annualreporttown1998hopk
0.45666874852899369541248120185628 1:0.53158158 2:0.91194773 3:1 4:1 5:1 #180,176,classifiedbiblio01veal
-0.45666874852899369541248120185628 1:0.87646079 2:0.91305429 3:1 4:1 5:1 #46,7800,chemicalreports00grah
0.45666874852899369541248120185628 1:0.062780268 2:0.06251809 3:0.33333334 4:0.022222223 5:0 #232,230,bookofrevelation00lhot
-0.45666874852899369541248120185628 1:0.089081593 2:0.12639582 3:0.071428575 4:0.086956523 5:0 #136,898,biennialretr1113stat
0.45666874852899369541248120185628 1:0.50480038 2:0.90385813 3:1 4:1 5:0 #194,190,classifiedbiblio01veal
0.45666874852899369541248120185628 1:0.91081214 2:0.064833574 3:1 4:0.022222223 5:1 #21,19,bookofrevelation00lhot
-0.45666874852899369541248120185628 1:0.87395662 2:0.038365722 3:1 4:0.025 5:1 #165,151,chemicalreports00grah
0.45666874852899369541248120185628 1:0.46184942 2:0.91630369 3:1 4:1 5:0 #143,139,classifiedbiblio01veal
-0.45666874852899369541248120185628 1:0.48119724 2:0.96336633 3:0.8888889 4:1 5:0 #125,57,cu31924021743095
-0.45666874852899369541248120185628 1:0.51288527 2:0.90665835 3:1 4:1 5:0 #110,100,classifiedbiblio01veal
0.45666874852899369541248120185628 1:0.87189597 2:0.067474462 3:1 4:0.0060422961 5:1 #189,181,biennialretr1113stat
0.45666874852899369541248120185628 1:0.87031925 2:0.066999286 3:1 4:0.0074349442 5:1 #193,185,biennialretr1113stat
-0.45666874852899369541248120185628 1:0.86143571 2:0.033881415 3:1 4:0.024390243 5:1 #175,161,chemicalreports00grah
-0.45666874852899369541248120185628 1:0.84974957 2:0.030144494 3:1 4:0.025 5:1 #155,141,chemicalreports00grah
0.45666874852899369541248120185628 1:0.46488124 2:0.91443682 3:1 4:1 5:0 #127,123,classifiedbiblio01veal
0.45666874852899369541248120185628 1:0.46387064 2:0.90852523 3:1 4:1 5:0 #113,109,classifiedbiblio01veal
-0.45666874852899369541248120185628 1:0.42640263 2:0.84523809 3:1 4:1 5:0 #6,1900,anessayonperson00richgoog
0.45666874852899369541248120185628 1:0.16832441 2:0.083130769 3:0.25 4:0.018518519 5:1 #147,16,cairngormmounta01burtgoog
-0.45666874852899369541248120185628 1:0.12103506 2:0.078724466 3:0.125 4:0.071428575 5:1 #76,62,chemicalreports00grah
-0.45666874852899369541248120185628 1:0.086322427 2:0.91351867 3:0.07692308 4:0.95918369 5:0 #131,860,biennialretr1113stat
-0.45666874852899369541248120185628 1:0.057031527 2:0.88596106 3:0.071428575 4:0.92682928 5:0 #255,1997,annualreporttown1998hopk
0.45666874852899369541248120185628 1:0.91447103 2:0.053617906 3:1 4:0.028571429 5:1 #43,35,belfry01sincgoog
-0.45666874852899369541248120185628 1:0.87979966 2:0.042600896 3:1 4:0.025641026 5:1 #227,213,chemicalreports00grah
0.45666874852899369541248120185628 1:0.4603335 2:0.90572494 3:1 4:1 5:0 #125,121,classifiedbiblio01veal
-0.45666874852899369541248120185628 1:0.91210091 2:0.49204087 3:1 4:0.96153843 5:1 #198,03,biennialretr1113stat
0.45666874852899369541248120185628 1:0.1924254 2:0.11254254 3:0.25 4:0.035714287 5:0 #97,86,cairngormmounta01burtgoog
-0.45666874852899369541248120185628 1:0.12893191 2:0.19870938 3:1 4:0.015765766 5:0 #68,055,annualreporttown1998hopk
-0.45666874852899369541248120185628 1:0.097822331 2:0.17489986 3:1 4:0.046153847 5:0 #69,95,annualreporttown1998hopk
0.45666874852899369541248120185628 1:0.50777739 2:0.95438361 3:1 4:1 5:1 #24,22,annualreporttown1998hopk
0.45666874852899369541248120185628 1:0.50903296 2:0.95283437 3:1 4:1 5:1 #114,112,annualreporttown1998hopk
-0.45666874852899369541248120185628 1:0.88564849 2:0.93168318 3:1 4:0.98473281 5:1 #386,257,cu31924021743095
0.45666874852899369541248120185628 1:0.883259 2:0.038521603 3:1 4:0.030303031 5:0 #129,121,belfry01sincgoog
-0.45666874852899369541248120185628 1:0.93572623 2:0.87668163 3:1 4:0.97986579 5:1 #288,11,chemicalreports00grah
-0.45666874852899369541248120185628 1:0.93572623 2:0.86223221 3:1 4:0.95973152 5:1 #288,11,chemicalreports00grah
0.45666874852899369541248120185628 1:0.080259427 2:0.059344091 3:0.33333334 4:0.034482758 5:0 #40,32,belfry01sincgoog
0.45666874852899369541248120185628 1:0.087504931 2:0.062485151 3:0.33333334 4:0.02 5:0 #120,112,biennialretr1113stat
0.45666874852899369541248120185628 1:0.5060491 2:0.95505118 3:1 4:1 5:1 #82,80,annualreporttown1998hopk
-0.45666874852899369541248120185628 1:0.10559265 2:0.061534628 3:0.5 4:0.025 5:0 #126,112,chemicalreports00grah
0.45666874852899369541248120185628 1:0.51222104 2:0.94862711 3:1 4:1 5:1 #182,180,annualreporttown1998hopk
-0.45666874852899369541248120185628 1:0.26627713 2:0.91355258 3:1 4:0.98429322 5:1 #289,50,chemicalreports00grah
0.45666874852899369541248120185628 1:0.19280796 2:0.11400097 3:0.25 4:0.037037037 5:0 #87,76,cairngormmounta01burtgoog
-0.45666874852899369541248120185628 1:0.087110758 2:0.12449513 3:0.083333336 4:0.08510638 5:0 #128,817,biennialretr1113stat
-0.45666874852899369541248120185628 1:0.19117068 2:0.10857686 3:1 4:0.043478262 5:0 #142,1912,biennialretr1113stat
-0.45666874852899369541248120185628 1:0.20413253 2:0.13363533 3:1 4:0.034246575 5:0 #206,2,biennialretr1113stat
0.45666874852899369541248120185628 1:0.5070861 2:0.95327103 3:1 4:1 5:1 #102,100,annualreporttown1998hopk
0.45666874852899369541248120185628 1:0.50293815 2:0.95660883 3:1 4:1 5:1 #40,38,annualreporttown1998hopk
-0.45666874852899369541248120185628 1:0.77973908 2:0.95792079 3:0.84615386 4:1 5:1 #83,140,cu31924021743095
0.45666874852899369541248120185628 1:0.061285499 2:0.056150507 3:0.5 4:0.022727273 5:0 #114,112,bookofrevelation00lhot
0.45666874852899369541248120185628 1:0.89623022 2:0.041644976 3:1 4:0.029411765 5:0 #213,205,belfry01sincgoog
-0.45666874852899369541248120185628 1:0.1028396 2:0.94653463 3:0.11111111 4:1 5:1 #171,3,cu31924021743095
-0.45666874852899369541248120185628 1:0.87095165 2:0.076700434 3:1 4:0.022222223 5:0 #115,118,bookofrevelation00lhot
0.45666874852899369541248120185628 1:0.4249621 2:0.91848165 3:1 4:1 5:1 #19,15,classifiedbiblio01veal
0.45666874852899369541248120185628 1:0.088293262 2:0.060346875 3:0.33333334 4:0.02 5:0 #110,102,biennialretr1113stat
-0.45666874852899369541248120185628 1:0.1481636 2:0.8756851 3:1 4:0.96196866 5:1 #288,43,chemicalreports00grah
0.45666874852899369541248120185628 1:0.24514811 2:0.14515004 3:0.33333334 4:0.019607844 5:0 #237,214,anessayonperson00richgoog
-0.45666874852899369541248120185628 1:0.2805526 2:0.14216121 3:0.14285715 4:0.016949153 5:0 #225,1997,annualreporttown1998hopk
0.45666874852899369541248120185628 1:0.50073999 2:0.95784801 3:1 4:1 5:1 #263,13,bookofrevelation00lhot
-0.45666874852899369541248120185628 1:0.894858 2:0.92475247 3:1 4:0.98666668 5:1 #390,90,cu31924021743095
-0.45666874852899369541248120185628 1:0.11725115 2:0.17294066 3:1 4:0.05109489 5:0 #133,2000,annualreporttown1998hopk
-0.45666874852899369541248120185628 1:0.17382735 2:0.091708243 3:1 4:0.07272727 5:0 #137,1912,biennialretr1113stat
0.45666874852899369541248120185628 1:0.5083245 2:0.95194864 3:1 4:1 5:1 #122,120,annualreporttown1998hopk
0.45666874852899369541248120185628 1:0.50846875 2:0.9506008 3:1 4:1 5:1 #64,62,annualreporttown1998hopk
-0.45666874852899369541248120185628 1:0.059847198 2:0.98410225 3:0.25 4:1 5:1 #30,26,brownalumnimonth954brow
0.45666874852899369541248120185628 1:0.8715018 2:0.041339986 3:1 4:0.027777778 5:0 #183,175,biennialretr1113stat
-0.45666874852899369541248120185628 1:0.99545223 2:0.25451151 3:1 4:0.23076923 5:0 #181,5,classifiedbiblio01veal
-0.45666874852899369541248120185628 1:0.9167552 2:0.1459256 3:1 4:0.10526316 5:0 #240,1998,annualreporttown1998hopk
0.45666874852899369541248120185628 1:0.07597851 2:0.08118812 3:0.2 4:0.022727273 5:1 #293,278,cu31924021743095
0.45666874852899369541248120185628 1:0.078280888 2:0.080693066 3:0.2 4:0.027777778 5:1 #87,72,cu31924021743095
-0.45666874852899369541248120185628 1:0.077513434 2:0.1529703 3:0.11111111 4:0.083333336 5:1 #282,436,cu31924021743095
-0.45666874852899369541248120185628 1:0.076074101 2:0.1900689 3:0.07692308 4:0.16 5:1 #119,711,biennialretr1113stat
0.45666874852899369541248120185628 1:0.48910892 2:0.86884922 3:1 4:1 5:0 #212,189,anessayonperson00richgoog
0.45666874852899369541248120185628 1:0.47296613 2:0.90572494 3:1 4:1 5:0 #109,105,classifiedbiblio01veal
-0.45666874852899369541248120185628 1:0.50478214 2:0.90434015 3:1 4:0.97777778 5:0 #203,5,annualreporttown1998hopk
0.45666874852899369541248120185628 1:0.085188031 2:0.068316832 3:0.2 4:0.027777778 5:1 #217,202,cu31924021743095
-0.45666874852899369541248120185628 1:0.87867266 2:0.1141522 3:1 4:0.060606062 5:0 #7,122,annualreporttown1998hopk
0.45666874852899369541248120185628 1:0.90920144 2:0.057782404 3:1 4:0.028571429 5:0 #175,167,belfry01sincgoog
-0.45666874852899369541248120185628 1:0.86936563 2:0.071250625 3:1 4:0.025 5:0 #73,59,chemicalreports00grah
0.45666874852899369541248120185628 1:0.46111304 2:0.96083665 3:1 4:1 5:1 #87,85,annualreporttown1998hopk
-0.45666874852899369541248120185628 1:0.14732888 2:0.8731938 3:1 4:0.94846797 5:1 #294,71,chemicalreports00grah
0.45666874852899369541248120185628 1:0.10484824 2:0.061297219 3:0.33333334 4:0.02 5:0 #162,154,biennialretr1113stat
-0.45666874852899369541248120185628 1:0.09974958 2:0.070752367 3:0.5 4:0.025 5:0 #124,110,chemicalreports00grah
-0.45666874852899369541248120185628 1:0.084307179 2:0.020926757 3:0.5 4:0.025 5:1 #144,130,chemicalreports00grah
-0.45666874852899369541248120185628 1:0.084724538 2:0.025411062 3:0.5 4:0.025 5:1 #146,132,chemicalreports00grah
0.45666874852899369541248120185628 1:0.46791309 2:0.9091475 3:1 4:1 5:0 #129,125,classifiedbiblio01veal
0.45666874852899369541248120185628 1:0.46690246 2:0.90945864 3:1 4:1 5:0 #161,157,classifiedbiblio01veal
-0.45666874852899369541248120185628 1:0.86598343 2:0.92112142 3:1 4:0.97777778 5:0 #161,163,biennialretr1113stat
0.45666874852899369541248120185628 1:0.079815812 2:0.07376238 3:0.2 4:0.023809524 5:1 #61,46,cu31924021743095
0.45666874852899369541248120185628 1:0.91244429 2:0.054919314 3:1 4:0.028571429 5:1 #155,147,belfry01sincgoog
-0.45666874852899369541248120185628 1:0.87061769 2:0.075734928 3:1 4:0.025 5:0 #119,105,chemicalreports00grah
-0.45666874852899369541248120185628 1:0.12202609 2:0.95247525 3:0.66666669 4:1 5:1 #70,110,cu31924021743095
-0.45666874852899369541248120185628 1:0.22506899 2:0.82798767 3:1 4:0.98275864 5:1 #114,20,biennialretr1113stat
0.45666874852899369541248120185628 1:0.88135594 2:0.06794963 3:1 4:0.008583691 5:0 #187,179,biennialretr1113stat
0.45666874852899369541248120185628 1:0.88017344 2:0.06794963 3:1 4:0.010050251 5:0 #211,203,biennialretr1113stat
0.45666874852899369541248120185628 1:0.45419979 2:0.95861149 3:1 4:1 5:1 #91,89,annualreporttown1998hopk
-0.45666874852899369541248120185628 1:0.86811352 2:0.079222724 3:1 4:0.025 5:0 #121,107,chemicalreports00grah
-0.45666874852899369541248120185628 1:0.88912505 2:0.082152344 3:1 4:0.057553958 5:0 #229,00,annualreporttown1998hopk
-0.45666874852899369541248120185628 1:0.87832701 2:0.087227412 3:1 4:0.030303031 5:0 #7,162,annualreporttown1998hopk
0.45666874852899369541248120185628 1:0.42748863 2:0.9206596 3:1 4:1 5:1 #87,83,classifiedbiblio01veal
0.45666874852899369541248120185628 1:0.43102577 2:0.92688239 3:1 4:1 5:1 #23,19,classifiedbiblio01veal
-0.45666874852899369541248120185628 1:0.73873121 2:0.94793224 3:1 4:1 5:1 #289,2,chemicalreports00grah
0.45666874852899369541248120185628 1:0.088293262 2:0.066286527 3:0.33333334 4:0.01923077 5:0 #102,94,biennialretr1113stat
0.45666874852899369541248120185628 1:0.90758008 2:0.051535659 3:1 4:0.030303031 5:0 #177,169,belfry01sincgoog
-0.45666874852899369541248120185628 1:0.18919984 2:0.090520315 3:1 4:0.0625 5:0 #144,1912,biennialretr1113stat
0.45666874852899369541248120185628 1:0.48634636 2:0.95972407 3:1 4:1 5:1 #95,93,annualreporttown1998hopk
0.45666874852899369541248120185628 1:0.088293262 2:0.066048943 3:0.33333334 4:0.019607844 5:0 #10,4,biennialretr1113stat
-0.45666874852899369541248120185628 1:0.88948578 2:0.9217822 3:1 4:0.9856115 5:1 #384,188,cu31924021743095
-0.45666874852899369541248120185628 1:0.88257867 2:0.9242574 3:1 4:0.98425198 5:1 #388,290,cu31924021743095
0.45666874852899369541248120185628 1:0.088687427 2:0.066524118 3:0.33333334 4:0.019607844 5:0 #152,144,biennialretr1113stat
0.45666874852899369541248120185628 1:0.50950569 2:0.94926566 3:1 4:1 5:1 #86,84,annualreporttown1998hopk
-0.45666874852899369541248120185628 1:0.088293262 2:0.11974341 3:0.1 4:0.081632651 5:0 #117,684,biennialretr1113stat
-0.45666874852899369541248120185628 1:0.054551896 2:0.21899912 3:1 4:0.16393442 5:0 #213,3190,annualreporttown1998hopk
0.45666874852899369541248120185628 1:0.53057098 2:0.91132545 3:1 4:1 5:1 #42,38,classifiedbiblio01veal
-0.45666874852899369541248120185628 1:0.35917115 2:0.95990098 3:0.875 4:1 5:1 #335,571,cu31924021743095
-0.45666874852899369541248120185628 1:0.88569176 2:0.89118558 3:1 4:0.99697888 5:1 #189,13,biennialretr1113stat
0.45666874852899369541248120185628 1:0.47145024 2:0.90603608 3:1 4:1 5:0 #111,107,classifiedbiblio01veal
-0.45666874852899369541248120185628 1:0.48127711 2:0.90235209 3:1 4:0.95652175 5:0 #96,115,biennialretr1113stat
-0.45666874852899369541248120185628 1:0.10350584 2:0.038365722 3:0.2 4:0.02631579 5:1 #226,212,chemicalreports00grah
-0.45666874852899369541248120185628 1:0.074034713 2:0.26350752 3:1 4:0.38688526 5:0 #167,00,annualreporttown1998hopk
-0.45666874852899369541248120185628 1:0.081230558 2:0.2176235 3:1 4:0.30136988 5:0 #42,3914,annualreporttown1998hopk
0.45666874852899369541248120185628 1:0.90867227 2:0.066336632 3:1 4:0.02631579 5:1 #18,3,cu31924021743095
0.45666874852899369541248120185628 1:0.90533131 2:0.070043415 3:1 4:0.022727273 5:1 #51,49,bookofrevelation00lhot
0.45666874852899369541248120185628 1:0.45115513 2:0.88253969 3:1 4:1 5:0 #232,209,anessayonperson00richgoog
-0.45666874852899369541248120185628 1:0.9328047 2:0.25535625 3:1 4:0.089136489 5:1 #294,00620,chemicalreports00grah
0.45666874852899369541248120185628 1:0.051320378 2:0.061360348 3:0.5 4:0.02631579 5:0 #112,110,bookofrevelation00lhot
-0.45666874852899369541248120185628 1:0.67445743 2:0.16990533 3:0.33333334 4:0.13513513 5:1 #60,4,chemicalreports00grah
0.45666874852899369541248120185628 1:0.14860071 2:0.067474462 3:1 4:0.0033783785 5:1 #188,180,biennialretr1113stat
-0.45666874852899369541248120185628 1:0.12520868 2:0.044843048 3:1 4:0.0030674846 5:1 #292,278,chemicalreports00grah
0.45666874852899369541248120185628 1:0.07904835 2:0.074257426 3:0.2 4:0.023809524 5:1 #245,230,cu31924021743095
0.45666874852899369541248120185628 1:0.48679543 2:0.71062011 3:1 4:0.71428573 5:0 #90,82,biennialretr1113stat
0.45666874852899369541248120185628 1:0.21348314 2:0.14375436 3:0.2 4:0.029411765 5:1 #29,6,anessayonperson00richgoog
-0.45666874852899369541248120185628 1:0.054316983 2:0.044768348 3:0.33333334 4:0.029411765 5:1 #310,302,belfry01sincgoog
0.45666874852899369541248120185628 1:0.51009566 2:0.94818425 3:1 4:1 5:1 #166,164,annualreporttown1998hopk
0.45666874852899369541248120185628 1:0.082118191 2:0.069306932 3:0.2 4:0.027027028 5:1 #249,234,cu31924021743095
-0.45666874852899369541248120185628 1:0.73497498 2:0.9476831 3:1 4:1 5:1 #337,2,chemicalreports00grah
0.45666874852899369541248120185628 1:0.52956039 2:0.91350341 3:1 4:1 5:1 #88,84,classifiedbiblio01veal
-0.45666874852899369541248120185628 1:0.44095665 2:0.94761217 3:1 4:1 5:1 #247,22,bookofrevelation00lhot
0.45666874852899369541248120185628 1:0.099724084 2:0.065098599 3:0.33333334 4:0.02 5:0 #158,150,biennialretr1113stat
0.45666874852899369541248120185628 1:0.5054906 2:0.95327723 3:1 4:1 5:1 #154,152,annualreporttown1998hopk
-0.45666874852899369541248120185628 1:0.26001668 2:0.9060787 3:1 4:0.97872341 5:1 #305,3,chemicalreports00grah
-0.45666874852899369541248120185628 1:0.31886476 2:0.91504735 3:1 4:0.986911 5:1 #289,1975,chemicalreports00grah
0.45666874852899369541248120185628 1:0.093417421 2:0.066761702 3:0.33333334 4:0.019607844 5:0 #160,152,biennialretr1113stat
0.45666874852899369541248120185628 1:0.4994815 2:0.95638627 3:1 4:1 5:1 #20,18,annualreporttown1998hopk
0.45666874852899369541248120185628 1:0.49325958 2:0.95749891 3:1 4:1 5:1 #7,5,annualreporttown1998hopk
0.45666874852899369541248120185628 1:0.034454804 2:0.04737116 3:0.33333334 4:0.030303031 5:1 #44,36,belfry01sincgoog
0.45666874852899369541248120185628 1:0.65394193 2:0.36104217 3:1 4:0.72151899 5:0 #47,44,brownalumnimonth954brow
0.45666874852899369541248120185628 1:0.46284133 2:0.95950156 3:1 4:1 5:1 #109,107,annualreporttown1998hopk
0.45666874852899369541248120185628 1:0.45385414 2:0.95705384 3:1 4:1 5:1 #107,105,annualreporttown1998hopk
0.45666874852899369541248120185628 1:0.089081593 2:0.066524118 3:0.33333334 4:0.023809524 5:0 #90,82,biennialretr1113stat
0.45666874852899369541248120185628 1:0.089475758 2:0.062722735 3:0.33333334 4:0.030303031 5:0 #56,48,biennialretr1113stat
0.45666874852899369541248120185628 1:0.50466645 2:0.95327103 3:1 4:1 5:1 #44,42,annualreporttown1998hopk
0.45666874852899369541248120185628 1:0.50846875 2:0.94993323 3:1 4:1 5:1 #112,110,annualreporttown1998hopk
0.45666874852899369541248120185628 1:0.46975458 2:0.96061414 3:1 4:1 5:1 #89,87,annualreporttown1998hopk
0.45666874852899369541248120185628 1:0.46975458 2:0.96039164 3:1 4:1 5:1 #79,77,annualreporttown1998hopk
0.45666874852899369541248120185628 1:0.49913585 2:0.95549619 3:1 4:1 5:1 #60,58,annualreporttown1998hopk
0.45666874852899369541248120185628 1:0.50513637 2:0.95239151 3:1 4:1 5:1 #212,210,annualreporttown1998hopk
0.45666874852899369541248120185628 1:0.53006572 2:0.9091475 3:1 4:1 5:1 #82,78,classifiedbiblio01veal
0.45666874852899369541248120185628 1:0.50570345 2:0.95193589 3:1 4:1 5:1 #66,64,annualreporttown1998hopk
-0.45666874852899369541248120185628 1:0.81761271 2:0.14175387 3:1 4:0.16666667 5:1 #42,60,chemicalreports00grah
-0.45666874852899369541248120185628 1:0.52587646 2:0.88589936 3:1 4:0.97771585 5:1 #294,16,chemicalreports00grah
-0.45666874852899369541248120185628 1:0.226762 2:0.80251223 3:1 4:0.9775281 5:1 #240,170,anessayonperson00richgoog
-0.45666874852899369541248120185628 1:0.75 2:0.15869457 3:1 4:0.14285715 5:1 #87,130,chemicalreports00grah
-0.45666874852899369541248120185628 1:0.21494158 2:0.89885402 3:1 4:0.96596861 5:1 #289,148310,chemicalreports00grah
-0.45666874852899369541248120185628 1:0.12813021 2:0.048330843 3:1 4:0.0022371365 5:1 #288,274,chemicalreports00grah
0.45666874852899369541248120185628 1:0.48461804 2:0.95950156 3:1 4:1 5:1 #47,45,annualreporttown1998hopk
-0.45666874852899369541248120185628 1:0.87567151 2:0.92871284 3:1 4:0.98113209 5:1 #387,256,cu31924021743095
0.45666874852899369541248120185628 1:0.43052047 2:0.89794648 3:1 4:1 5:1 #53,49,classifiedbiblio01veal
-0.45666874852899369541248120185628 1:0.13647746 2:0.8667165 3:1 4:0.9417178 5:1 #292,24,chemicalreports00grah
0.45666874852899369541248120185628 1:0.53006572 2:0.89856875 3:1 4:1 5:1 #54,50,classifiedbiblio01veal
-0.45666874852899369541248120185628 1:0.8749041 2:0.91881186 3:1 4:0.98601401 5:1 #389,240,cu31924021743095
0.45666874852899369541248120185628 1:0.42799392 2:0.90354699 3:1 4:1 5:1 #21,17,classifiedbiblio01veal
0.45666874852899369541248120185628 1:0.51591712 2:0.8845675 3:1 4:1 5:1 #92,88,classifiedbiblio01veal
-0.45666874852899369541248120185628 1:0.20951585 2:0.89885402 3:1 4:0.95625001 5:1 #28,3,chemicalreports00grah
-0.45666874852899369541248120185628 1:0.74081802 2:0.94593918 3:1 4:1 5:1 #129,12,chemicalreports00grah
0.45666874852899369541248120185628 1:0.44113189 2:0.89887989 3:1 4:1 5:1 #67,63,classifiedbiblio01veal
-0.45666874852899369541248120185628 1:0.1481636 2:0.86123568 3:1 4:0.94183445 5:1 #288,42,chemicalreports00grah
0.45666874852899369541248120185628 1:0.52703387 2:0.89919102 3:1 4:1 5:1 #96,92,classifiedbiblio01veal
-0.45666874852899369541248120185628 1:0.84115094 2:0.914469 3:1 4:1 5:1 #192,03,biennialretr1113stat
0.45666874852899369541248120185628 1:0.42647803 2:0.91194773 3:1 4:1 5:1 #69,65,classifiedbiblio01veal
0.45666874852899369541248120185628 1:0.52703387 2:0.90043557 3:1 4:1 5:1 #136,132,classifiedbiblio01veal
-0.45666874852899369541248120185628 1:0.20890816 2:0.91660726 3:1 4:0.94444442 5:1 #209,2,biennialretr1113stat
-0.45666874852899369541248120185628 1:0.73330551 2:0.9451918 3:1 4:1 5:1 #305,2,chemicalreports00grah
0.45666874852899369541248120185628 1:0.50075793 2:0.89390171 3:1 4:1 5:1 #130,126,classifiedbiblio01veal
-0.45666874852899369541248120185628 1:0.26557711 2:0.81995815 3:1 4:0.9893617 5:1 #238,188,anessayonperson00richgoog
0.45666874852899369541248120185628 1:0.52097017 2:0.89390171 3:1 4:1 5:1 #134,130,classifiedbiblio01veal
-0.45666874852899369541248120185628 1:0.76752919 2:0.93896365 3:1 4:1 5:1 #241,2,chemicalreports00grah
0.45666874852899369541248120185628 1:0.45426983 2:0.90043557 3:1 4:1 5:1 #131,127,classifiedbiblio01veal
-0.45666874852899369541248120185628 1:0.20200334 2:0.89436972 3:1 4:0.94832826 5:1 #310,410,chemicalreports00grah
-0.45666874852899369541248120185628 1:0.46935725 2:0.94211286 3:1 4:1 5:1 #195,17,bookofrevelation00lhot
0.45666874852899369541248120185628 1:0.52147549 2:0.89856875 3:1 4:1 5:1 #124,120,classifiedbiblio01veal
-0.45666874852899369541248120185628 1:0.70200336 2:0.94892877 3:1 4:1 5:1 #113,112,chemicalreports00grah
0.45666874852899369541248120185628 1:0.45578575 2:0.90074676 3:1 4:1 5:1 #133,129,classifiedbiblio01veal
0.45666874852899369541248120185628 1:0.52956039 2:0.91039205 3:1 4:1 5:1 #24,20,classifiedbiblio01veal
-0.45666874852899369541248120185628 1:0.46337819 2:0.93921852 3:1 4:1 5:1 #231,20,bookofrevelation00lhot
0.45666874852899369541248120185628 1:0.52248609 2:0.90074676 3:1 4:1 5:1 #102,98,classifiedbiblio01veal
-0.45666874852899369541248120185628 1:0.47184852 2:0.9397974 3:1 4:1 5:1 #39,4,bookofrevelation00lhot
0.45666874852899369541248120185628 1:0.51136941 2:0.90012443 3:1 4:1 5:1 #68,64,classifiedbiblio01veal
-0.45666874852899369541248120185628 1:0.7629382 2:0.9387145 3:1 4:1 5:1 #273,2,chemicalreports00grah
0.45666874852899369541248120185628 1:0.43810004 2:0.90696949 3:1 4:1 5:1 #163,159,classifiedbiblio01veal
-0.45666874852899369541248120185628 1:0.10809683 2:0.77005482 3:1 4:0.92592591 5:1 #285,15,chemicalreports00grah
-0.45666874852899369541248120185628 1:0.30383974 2:0.89038366 3:1 4:0.98657715 5:1 #288,665384,chemicalreports00grah
0.45666874852899369541248120185628 1:0.52753913 2:0.90759176 3:1 4:1 5:1 #198,194,classifiedbiblio01veal
-0.45666874852899369541248120185628 1:0.8943634 2:0.88833451 3:1 4:0.99288255 5:1 #197,03,biennialretr1113stat
0.45666874852899369541248120185628 1:0.42900455 2:0.91225886 3:1 4:1 5:1 #167,163,classifiedbiblio01veal
-0.45666874852899369541248120185628 1:0.14774625 2:0.85949177 3:1 4:0.93036211 5:1 #294,70,chemicalreports00grah
0.45666874852899369541248120185628 1:0.52147549 2:0.90230244 3:1 4:1 5:1 #90,86,classifiedbiblio01veal
-0.45666874852899369541248120185628 1:0.75584304 2:0.93896365 3:1 4:1 5:1 #257,2,chemicalreports00grah
0.45666874852899369541248120185628 1:0.44517434 2:0.90510267 3:1 4:1 5:1 #165,161,classifiedbiblio01veal
0.45666874852899369541248120185628 1:0.52147549 2:0.90603608 3:1 4:1 5:1 #120,116,classifiedbiblio01veal
-0.45666874852899369541248120185628 1:0.26627713 2:0.89561534 3:1 4:0.96249998 5:1 #28,1488,chemicalreports00grah
-0.45666874852899369541248120185628 1:0.75626045 2:0.9344793 3:1 4:1 5:1 #81,2,chemicalreports00grah
0.45666874852899369541248120185628 1:0.50833756 2:0.89981329 3:1 4:1 5:1 #132,128,classifiedbiblio01veal
0.45666874852899369541248120185628 1:0.52097017 2:0.90603608 3:1 4:1 5:1 #76,72,classifiedbiblio01veal
-0.45666874852899369541248120185628 1:0.47483808 2:0.93632418 3:1 4:1 5:1 #111,10,bookofrevelation00lhot
0.45666874852899369541248120185628 1:0.51591712 2:0.90074676 3:1 4:1 5:1 #66,62,classifiedbiblio01veal
-0.45666874852899369541248120185628 1:0.47732934 2:0.93777132 3:1 4:1 5:1 #159,14,bookofrevelation00lhot
0.45666874852899369541248120185628 1:0.8818112 2:0.074257426 3:1 4:0.025641026 5:1 #70,55,cu31924021743095
-0.45666874852899369541248120185628 1:0.27681306 2:0.80460572 3:1 4:0.96875 5:1 #239,128,anessayonperson00richgoog
0.45666874852899369541248120185628 1:0.52147549 2:0.90821409 3:1 4:1 5:1 #36,32,classifiedbiblio01veal
-0.45666874852899369541248120185628 1:0.76919866 2:0.93074238 3:1 4:1 5:1 #89,326,chemicalreports00grah
0.45666874852899369541248120185628 1:0.44567963 2:0.90572494 3:1 4:1 5:1 #147,143,classifiedbiblio01veal
-0.45666874852899369541248120185628 1:0.19616027 2:0.90433484 3:1 4:0.9375 5:1 #91,1839,chemicalreports00grah
0.45666874852899369541248120185628 1:0.52097017 2:0.9079029 3:1 4:1 5:1 #80,76,classifiedbiblio01veal
-0.45666874852899369541248120185628 1:0.77128547 2:0.92700547 3:1 4:1 5:1 #15,2,chemicalreports00grah
0.45666874852899369541248120185628 1:0.44719556 2:0.90603608 3:1 4:1 5:1 #195,191,classifiedbiblio01veal
